-4.144235270939920156e+03,-9.491599011415013365e+01,-3.127842931167295148e+01,-1.480726070964976498e+04,-2.061681108526734931e+02,5.778380470705134869e+08,-5.264664700382547826e+07,1.978568813127670586e+08,-4.205046685723099387e+01,-2.152123486461633001e+05,2.890413044487960935e+08,-9.215272664632342980e+01,-2.037733016579081635e+01,5.482786246400387287e+08,-4.630004245031327628e+03,3.969458472526859045e+08,-2.252198260221727192e+06,-1.470674011799249565e+05,-1.159806715611037902e+02,-2.147474228784487350e+05,-5.860114276344989048e+04,-6.522958466362513263e+02,-2.843946739612572969e+02,1.707003682503681257e+07,5.235220989101138115e+08,-3.740214650340746516e+01,1.717959176475450397e+07,-7.321029542012062166e+02,-5.620623680708781649e+03,-2.074979771081268609e+01,8.086483510442279279e+07,9.783074565969984531e+08,-8.078497726760318187e+01,-6.391865863208050946e+00,7.250297349107284546e+08,-1.285365723858405690e+05,-6.245004889360602363e+01,-1.024904563690334385e+02,1.171326800124335766e+09,-2.728202571294235312e+01,-6.635995780967612518e+04,2.220186633169028908e+07,8.507076263435055017e+08,-1.432744048154109784e+01,6.294064642845735550e+08,2.479735454967911839e+08,-5.482988624324668160e+17,6.366098547061320543e+08,-2.559133964481393869e+19,-5.537361543652350804e+01,3.190424931608945727e+08,-2.056217887776033997e+19,8.614602383028604090e+07,-1.900918030066346319e+03,2.781206277935511470e+08,-4.216963125892446720e+17,1.230126579185345173e+09,3.356984760787469440e+03,-2.744341438624955458e+02,3.914054568291347027e+08,-4.451043813658338040e+05,-7.139251105432122131e+03,-4.368604050403015018e+08,-9.062277670356949093e+05,-1.715421563033596030e+05,-1.052373247975844657e+06,7.356778702605541945e+08,3.755118351706659198e+08,7.816107132954074442e+07,-6.960791360009216987e+03,-2.108216567891652744e+02,-1.033599322099157263e+02,2.068776742773191631e+08,1.355038914267773151e+09,-3.155774864842499028e+03,6.309494136062844992e+08,-2.678505580295082837e+03,-4.494291237797144277e+03,-6.137901933653197921e+04,3.745856953521841168e+08,4.254825110065201521e+08,-3.603781337526445985e+08,-1.414852693026045337e+06,-6.862576631880809069e+08,-3.465225142835388184e+08,-3.898641099962166663e+03,2.922104000109555665e+06,-3.082772911982438341e+07,-9.337046709064486194e+00,7.555262160187448561e+07,-1.042955559199457031e+13,-3.960096126896569133e+08,-9.292000861193591845e+03,3.865705780729692578e+08,-2.048601401669830864e+02,-3.610579484385015121e+02,-2.158020091329168281e+03,-3.742209801344093680e+08,2.089125292723294795e+08,-5.787005016668198323e+02
