-1.036559937814560906e+00,-1.409345895836222329e-01,-8.058206820162044232e-03,6.049982934404534163e-01,6.448773112821691855e-01,6.765177191008046875e-02,-7.417588600817438538e-01,4.242237916834117745e-02,-1.517564957055418107e-01,3.904093703475585569e-02,-2.731119097105634275e+00,8.960800927993345377e-01,2.450222144613453668e-01,-1.207398827303352684e+00,1.936957392018819446e+00,-2.670720848490445998e-01,2.375109850666744238e-01,4.555078241469963096e-01,1.116836007485093873e-01,1.685380701272231496e+00,1.230305466503795575e+00,1.788725341076385700e+00,-1.325805719673571748e+00,-1.355364962500525683e-01,1.056396510662187260e-02,1.146624047848681549e+00,-1.958645774080418345e-02,4.104421695747403342e-01,-6.711474242454231742e-01,-1.117871253312622715e+00,-2.297212836035551486e+00,6.703199983824646990e-01,-1.571487658347951039e-02,-2.270343427554505578e+00,-1.382195475095334247e+00,1.264744335854145696e+00,5.969987062590998983e-01,-2.685076699046452520e-01,-8.699798770877584242e-02,-1.371882191600222733e-01,-4.311482958152042938e-02,5.127302301864686829e-01,5.416557517767425084e-02,-1.489109789571610332e+00,-9.705625422408541425e-01,8.132221354260676938e-01,1.451934384326939886e+00,1.138882177132607421e+00,2.735465367116159396e-01,-7.500651095260602030e-01,-1.452750129263736145e+00,-6.953518823844513363e-01,-1.008997846629156481e+00,-1.256296807704720742e+00,7.700101284009618352e-01,-6.370216895790691281e-01,-5.393984501478593652e-01,-1.026068074986224099e+00,-6.861231144208539412e-01,2.545784444665096569e+00,1.249441550675702839e+00,-3.228060828978536190e-01,3.270053375663112272e-01,-5.208546105756086675e-01,7.256686590046115271e-01,1.083315316218435465e+00,-9.751333032281103153e-01,-1.804530090193762759e-01,-5.587668534502914230e-01,8.870350891348428579e-01,6.932977050112250073e-01,-3.321961220718543384e-01,-4.624474158318447325e-01,-1.245103923840550131e+00,-2.444728388317419510e-01,7.919587033113982821e-01,-6.408729086483926363e-01,7.536811690919669182e-01,6.338401088011837992e-01,-2.548932245933096530e-01,-5.917180044128598215e-01,1.650801737746828701e+00,3.663397417974829651e-01,1.176275051685923279e-01,5.261141026157905021e-01,-5.843730898688769271e-01,3.944456003670625543e-01,4.683813547145812550e-01,1.734131644348556156e+00,5.843761060874916868e-01,1.213865830978373556e-01,-6.482235593960707087e-02,-8.859340228887728486e-02,1.189610808982720647e+00,1.560262682515063837e+00,-1.113874451977384383e-01,3.335728278665022750e-01,1.997018818400790874e+00,-9.830557415991889592e-01,3.944084185392408015e-01
1.782534083780419776e+00,1.962292294465308062e+00,-9.766373276024002958e-01,-1.162325006606945932e+00,3.159343929090008968e-02,-7.073839144516492691e-03,-3.870419845943585124e-01,8.343077209238378700e-01,-1.464177513223350768e+00,3.694777677743851796e-02,-1.665914618569946382e-01,7.373712360251052922e-02,2.779190808757787678e-01,4.524494762534563841e-01,1.057907319855561773e-01,-3.268019161121594185e-01,2.747805358431657519e-01,1.584773152982819067e+00,7.340236583252907065e-02,7.651171759478133660e-01,-1.339477955615938354e-01,1.244254250028166808e+00,-1.484414839513835016e+00,-1.250653292569428865e-01,6.475560014234031658e-02,-5.498090761932655779e-01,8.129399150793142903e-02,7.708870941732786086e-01,3.763398264141428612e-02,-2.315714209735282858e-01,2.313868725716727415e+00,-5.492972091414404234e-01,7.739174182615370101e-02,1.478998402828904712e+00,1.074560778670815564e-01,1.102545623873430802e+00,1.467752498126934979e+00,-3.242185942166750379e-02,1.173475789980505668e-01,-9.099002192699611191e-01,7.811245213135770138e-01,6.533877548560813597e-01,6.794166397509099342e-02,-1.134511938204544101e+00,-7.815796085076741617e-01,7.133845356509450619e-01,-7.102646950963115158e-01,-1.140622868738784934e+00,-1.454957272463251350e+00,-2.311545695376679088e+00,1.301554226184586494e+00,-6.326312782376257715e-01,3.398663835168638098e-02,3.667957126016737623e-01,1.189857772938270664e+00,1.133664262576547163e-02,-1.353301277334750585e+00,-8.571431951634425617e-02,9.518742401425224209e-01,-2.690556012864977031e+00,-4.676793756522674705e-01,-4.719267962489906432e-01,7.342193655252196582e-02,-1.215561267738499041e+00,1.420190726774616996e+00,-7.342436515110959405e-01,-5.664238630493617643e-01,-4.773304577610373300e-01,-7.060673436393397617e-01,-9.104108994103454755e-02,5.789189705291848398e-01,-6.965551013472863762e-01,-6.304310422913931289e-01,7.323131555539237336e-01,-2.056871509624842165e-01,2.390646097955176907e-01,5.497721727883377874e-01,-8.601170710862451330e-01,2.141108719443138853e+00,3.747810080248498710e-01,3.772286948852937583e-01,1.165592542932414988e+00,-3.302911066048007660e-01,5.731982726616383778e-02,-5.413703184958684744e-01,3.285650380854276409e-01,-7.597938635337715685e-02,-2.681472334761652476e+00,-2.751554056740015408e-01,-1.590747603448915970e-01,4.000937280125310691e-01,1.072875685847228366e+00,3.798049612836174038e-02,2.579011538931647030e-01,1.126143211031786606e+00,1.505159939216854426e+00,1.005350312038693350e-01,-1.815502929691386935e+00,-5.310569679592858083e-01,-5.357825807583457278e-01
-8.734366482010441635e-01,-2.392069159285539204e+00,-6.304097538335171613e-01,-9.856521084067335625e-01,-1.845461779618835507e-01,2.024626643942279980e+00,-6.033288108464299748e-01,2.349864330230398701e-01,7.358136612867868243e-01,1.333610666034138248e+00,-2.273946620078532432e-01,-5.523996251105101063e-01,-8.235744063765622069e-01,-7.193328810709748167e-01,2.690055395758600976e-01,3.672677222367704691e-02,-8.906107846645286985e-01,-4.869074994739840956e-01,1.440149311003291910e+00,-8.370774286808683184e-01,-4.777032006714271306e-01,1.460398648686072609e-01,7.380997274576818201e-01,1.116173291022299230e+00,-2.067420533067642729e+00,1.280621457771936589e-01,9.237532242171447860e-01,-7.082286971425175715e-01,2.196730539284328931e-01,5.765501863866252519e-01,1.801915714714968919e-02,8.053188697744663171e-01,8.939886354652657463e-01,-2.012888608804127344e+00,5.761870606534945649e-01,5.009082024535781857e-02,-3.652808576419268594e-01,9.850411717516748267e-01,-1.190639917209260101e+00,1.275399567499899467e+00,1.849418636023727469e+00,-1.045776943610116305e+00,-1.071164813915241432e+00,-4.277233173109058068e-02,-8.327641746818555957e-01,-1.092196037782769830e-01,6.704757481042317169e-01,8.913095371174029058e-02,2.327498334283677472e+00,3.297390225943715447e-01,-1.164244627692833767e+00,1.356346151851736570e+00,2.931220677402715177e-02,-1.308918840331123157e+00,-5.295500453828906329e-01,-8.879796627327514458e-02,4.649434844873630568e-01,-5.877384241996167491e-01,-1.369711732112958158e+00,-3.819009089268998042e-02,8.091547039056480595e-02,-5.680112143168020156e-01,3.216255419323521547e-01,1.030649329026687822e+00,2.460408429376116923e-01,5.784195749767427897e-01,3.496687782005259981e-01,-6.089388119162439938e-01,8.506120702431833047e-01,3.911271733295184072e-01,6.595856859488191670e-01,3.458280038110884969e-02,2.369618267787859944e-01,3.691905767797892812e-01,-4.052976239830922145e-01,-4.279570084079811765e-01,2.911024360979811987e-01,-8.644641275689899373e-01,-5.228662200509521796e-01,-1.339972996343331779e+00,1.306613107611457547e+00,-1.509139628736659300e-01,8.198457101453170415e-01,-2.763614853251987191e-01,1.186252877435495678e+00,4.316119755041405992e-01,-2.560194835647110478e-01,1.036168018609325392e+00,7.386751685896516539e-01,-1.036275994928844146e-01,-2.222375420225424503e-01,7.261705010342158761e-01,3.364074182621933917e-01,-7.017259693594220249e-02,-3.766734319705117850e-01,-9.847829899694436895e-01,-1.945477340230885588e-01,1.832751444578727629e+00,4.724519004085496188e-01,7.873268720159524170e-01
-1.839751381361682259e-01,-5.155589466096717199e-01,-6.613252277898826748e-01,-5.068998594814743130e-01,-9.865812218216295504e-01,4.437970356274405226e-02,-2.460518623606295918e-01,6.310984686689904422e-01,-1.148631950758414622e+00,8.510167662591737459e-03,1.539889207132064813e-02,1.632051511385330389e-01,8.627508166812112300e-01,-1.593037731745467811e+00,-1.741851142621514137e-01,-7.975549633315195952e-02,1.258474494571206082e+00,-5.959683098163898185e-01,-4.165142177743881569e-02,1.481358056531382195e-01,-7.258392794053765418e-02,-1.886536762906295461e+00,3.706223233617655377e-01,-6.002288217122791342e-02,4.723359177652672325e-02,-2.925015718084832961e-01,-7.709237579508380067e-01,2.205237649489317775e-01,-6.545057400597837916e-01,6.457370548081603490e-01,-2.414415827746520193e+00,-1.593810858738570480e-01,-1.276045678690536922e-01,1.279264330744883937e-01,8.767993615943588948e-01,1.113866739713691878e+00,-2.168658076848324345e-01,9.050369985389358773e-02,-8.887184821603957841e-02,-2.826774825428336468e-01,-6.632247396405951401e-01,-9.062902992883740960e-02,-6.822254334720247171e-02,1.474798958362204981e+00,2.238324440532371451e+00,-8.014896947826087859e-01,1.734215493446253697e+00,1.240315728927758432e+00,1.145664599928766680e+00,1.621280217343552543e+00,-5.238256100779028479e-01,1.183385268686740349e-01,9.339470945004926250e-01,-1.085084779451894743e+00,-4.540979478509565848e-01,9.145660524426947324e-01,1.053520380084267627e+00,-1.560127065678636793e+00,2.729858371255435845e-01,2.683578974723498600e+00,-1.841686846775661690e-01,2.739245523261525372e-01,1.043159043736160863e+00,-6.779918725980726979e-01,1.994299384119768703e+00,5.282779199926150859e-01,-2.845156629820487226e-01,-2.665610286759592551e+00,5.508527267550015205e-01,7.505641041446800554e-02,-2.026260115519092242e+00,-5.221279332225912118e-01,-8.427071711894903450e-01,-2.061914393194010930e-01,1.547933252039699337e+00,-9.237053670684493012e-01,-5.671547621684251972e-01,7.704554174743962758e-01,-1.054125623563854752e+00,-6.235231174612071436e-01,-1.485140703568963438e+00,5.637058367116702662e-02,2.524300843393925131e-01,-3.209268123495837011e-01,-6.697526591486816505e-01,3.153375452977398852e-01,1.429143976393909832e-01,-5.120050531900082191e-01,-1.273507929758293210e-02,-6.677475803374028906e-01,1.378254114775780137e-01,-1.138198657475073983e+00,2.798977570410853821e-01,-9.295736185888520131e-01,9.064913234466028813e-01,7.914528040381453300e-01,-9.633658579991811743e-01,8.136934202906112579e-02,6.354222640025153357e-01,-5.802490295562144906e-01
4.735423771593297304e-01,1.303177705293081745e+00,-3.231665329281831478e-01,-1.897433051376453961e-01,4.039560912960320493e-01,-1.953474783871579357e+00,-4.052888654137766777e-01,3.885487286622588687e-01,6.564536103432813130e-01,1.446592298210831906e+00,-5.821460820085532228e-01,2.322141017732085866e-01,-1.578578790026907486e+00,2.525675802634317901e-01,7.856002873758162197e-01,-3.445014288469690558e-03,-2.810943943520982646e-01,-1.675655815676139415e+00,1.636379465583845505e+00,-1.025654164125425760e+00,3.069376953244767336e-01,-1.649149167581380748e+00,9.586787248485869606e-01,-1.101841726630782281e+00,-1.908846731817306797e+00,-3.792368817845940820e-01,9.455553778638785545e-01,-1.169872656865425853e+00,8.272656059477694335e-01,-9.047119351745956939e-01,-1.772704152996724403e-01,1.508255322936753684e+00,-1.155325273510794837e+00,-2.179682520330197548e-01,-3.745103267519996892e-01,-5.127553561094733842e-02,4.825269697500551569e-01,-1.224772005755742965e+00,-1.121062348444145096e+00,6.381306798008862247e-01,-3.518394772696527006e-01,1.544273178945169800e+00,-1.033885582469332931e+00,1.957190009645138673e+00,7.195540151638922799e-01,5.276175451134339917e-02,8.820693105404163459e-02,-3.275512080265660098e-01,-1.264474713366733560e+00,5.620361043964570147e-01,-6.117336784478937250e-01,-1.405978957667455509e+00,1.387457471255489683e+00,5.174667200493942021e-01,-1.365076026402566534e+00,-1.147861247619841540e+00,-3.520954145763785514e-01,7.734781527754980290e-01,-3.730979636352970141e-01,9.799671264878008492e-02,-5.329166474303425050e-01,1.511855621518562121e+00,2.687700742601860648e-01,1.265214502307274280e+00,-7.198591157424116815e-01,9.132472156061597346e-01,8.676106190496689630e-01,8.623400742282221199e-01,-1.509156039731567311e+00,-1.783392922425303950e-01,-7.949577561871381537e-01,-1.330473221494887115e+00,-4.584202968447545490e-01,8.751708506994593240e-01,7.819461862038974420e-01,3.114905280032869594e+00,-3.318323577070897423e-01,7.048408695776975375e-01,-9.926174919255800755e-02,-4.525943070569595217e-01,-4.438765620932084710e-01,-7.412525071703217616e-01,5.050009102491975072e-02,-6.447251249266362505e-01,-8.412078015297893563e-01,-8.199694239962044273e-01,-2.859940345974969211e-02,-6.219063288384085730e-01,5.985740667212359201e-01,6.363371008109204308e-01,7.791485906803625738e-01,-4.608794958575308520e-01,1.584544267978918730e-01,4.877783923910818942e-01,3.750982238135181501e-01,1.424211090253318712e+00,1.575912608636965029e+00,1.130351036905740264e-01,2.478118467669957192e-01,-1.378422723781994819e+00
-9.542589650513030319e-01,-5.268818216336639271e-01,-2.236897620617916138e-01,-5.711748628234749603e-01,3.071475200444621079e-01,-2.033137044526347470e+00,-1.274324096805171225e+00,3.185113602662594662e-02,-1.522188727646157425e+00,-1.388762989861126229e+00,8.740743248408616717e-01,4.300727836806668425e-02,1.734977859169535563e-01,1.096650123447027392e+00,-7.097117480044196069e-01,6.338806450804114201e-01,3.723613045629144969e-01,5.074072535698855857e-01,-1.494168338672319685e+00,1.397840624808395438e+00,1.067379067864065334e+00,-2.176685382354033860e-01,-1.119756499854095644e+00,1.192664243320819883e+00,1.806737472531581901e+00,9.065639419466509086e-01,1.224932179379848995e-01,1.470530085150147936e-01,6.166085669722534135e-01,-7.618551027763108274e-02,-1.535864865828065751e-01,-1.023101890540399628e-01,-1.195972512194040327e+00,1.496533158523211671e-01,-4.591601981308498504e-01,-1.098435604415953504e-01,1.408302966478720331e+00,1.189523958732269238e+00,-1.109031534241662342e+00,2.221041369464649973e-01,1.469047602004531772e-01,-1.826936235689519794e+00,9.541779380703345748e-01,1.622222309193404599e-01,5.906918301166276253e-01,7.101380504709596531e-02,-1.348830137910784766e+00,2.357714088097396243e-01,4.186835967957862059e-01,5.467574170968951021e-03,1.358931514689811326e+00,1.857039696107943838e+00,6.591276867542492646e-01,1.893303799552483735e-01,7.377716211407429892e-02,-7.245070420195972583e-01,-8.572520253655572242e-01,8.510336518757134483e-01,-5.478858252329051395e-04,1.185504095616177894e-01,-5.127760049172203072e-01,1.425046874655045759e+00,9.630257080467050645e-01,1.494059004124491663e-01,-5.509928738304912255e-01,-1.929737629251382591e+00,-4.002561358181841999e-01,5.543540421226587078e-01,1.562046013865647787e+00,4.747908237874211013e-01,-1.069145725890428889e+00,-1.128447859064893866e-01,2.518481266821265052e+00,-2.254651541729477127e-01,1.405972399360395642e+00,-1.135337748999712737e+00,-6.929673235104440998e-01,-7.278730421414310037e-01,9.213938687323552923e-01,7.406405810269641732e-01,-6.695655173204142496e-01,1.780179804806183985e-01,5.364357011578365642e-01,1.349256912468942693e-01,-8.516221816613235296e-01,-1.189280961101686573e+00,7.765914118348574702e-01,1.173320216969841345e+00,-5.232272545272868003e-01,1.572580942895010492e-01,9.059979508265245673e-01,-7.474324815170829694e-01,1.661492803031041493e-02,1.022173845026932648e+00,-1.546513596625839870e+00,-2.616798235132850703e+00,1.664727596339462545e-01,-8.053609560193401851e-02,-4.813507423873514268e-01,-1.767945227367121674e+00
-1.910328240376707898e+00,-4.036549436337632524e-01,9.310596666787664955e-01,6.884340895226075396e-01,-8.878697918877628270e-01,2.184169180246736008e+00,1.058650951615270008e+00,-2.798139978293212593e-01,-9.351299184176949941e-01,-1.356102814605149476e+00,-3.890555101750914901e-01,6.722948976502752805e-01,-1.234746291751381286e-01,-2.759863795963783062e+00,5.873920349174442945e-01,3.623551722030859401e-01,2.118942951869267066e-01,3.830896171257653915e-01,-1.455394726602373900e+00,-5.184521549217516734e-01,1.827317820810005211e-01,-3.352827858514392245e-01,-9.461760291059190253e-02,-1.101314788897198804e+00,-2.090970323120709295e+00,1.795851456455397344e-01,4.757241461073590250e-01,2.279518464061201788e-01,6.829407045638180573e-01,-8.614993974461827575e-01,1.300181549374474499e-01,9.020695507067003627e-01,1.062307496221173153e+00,-3.246538011140887026e-01,6.177557994904162575e-01,2.522011767681717753e+00,1.275346720909162235e+00,1.169706701188098164e+00,1.148140865179799519e+00,-1.148548865102363647e+00,-3.175278040033317067e-02,-1.195149613240905850e+00,1.020765767241296418e+00,1.014073270207565880e+00,7.176617362722571558e-01,3.516663462728981671e-01,2.304917953993925295e+00,1.571356091161031365e-01,7.327593911865624143e-01,-7.654823394628331723e-01,-9.398326378376300472e-01,1.005509540183511102e-01,2.263478853830438897e+00,-6.235133500598545320e-01,1.652732628164687578e-01,-5.785360512876592809e-01,-1.429011370928189750e+00,-2.504695135818461593e-01,1.116480372335275417e+00,3.471200364673535654e-01,-5.400419771383039302e-01,2.093308064669070767e-01,-9.434817518362681454e-01,1.264380413885533294e-01,-3.945198710476365833e-01,2.414534554107536646e-01,-5.952782073406256425e-01,-1.414709154444039330e+00,1.114785936519324228e+00,4.876511389337088165e-01,-1.716070793952569340e-01,6.482610552528634829e-01,-1.220682717409153073e-01,1.650945203525695959e+00,2.326423163163760799e-01,-9.313783470586604052e-01,-3.381042072600497495e-01,-8.893963544720753234e-01,1.424199039285390267e+00,1.834829056270224079e-01,6.896906749610084986e-02,3.682872975207527322e-01,-9.509326522535025417e-01,-6.295806656643839760e-01,-1.078486862802721324e+00,-3.433045745181485531e-01,-6.199971247116818907e-01,2.259574835205241730e-02,-9.609431844433714565e-01,8.965484134651762194e-01,8.427114496144390010e-01,1.661065686222101601e+00,-2.014937350586373521e-01,5.258346683335418659e-01,3.140202967510429821e-01,4.272036108245413355e-01,8.560883768307537833e-01,3.475723935265866427e-01,1.077775702323278795e+00,-1.362514034154990394e+00
-9.100698736561635416e-01,5.699322263496480190e-01,8.703612466726816377e-02,-2.611115011798898489e-01,1.247502769046746202e-01,-2.019726332653147827e-01,6.522820824339689016e-01,-2.757513075352194809e-01,2.010732361467748142e+00,9.897120299550869055e-03,-1.059774935444664834e+00,-1.016765457644709159e+00,-1.493604118533772729e+00,-6.552944263455776075e-02,1.429194161307673960e+00,-1.198719805092738483e-01,-1.746525423867816729e+00,-9.522891011865327604e-01,7.533460993178835163e-02,-1.315713437810899000e+00,-5.129298400505960531e-01,3.940589427870395678e-01,8.220281365289835440e-01,-7.598407212283476118e-03,-5.213738706478146523e-02,1.174005454763263234e+00,9.291510888816878477e-01,2.105577104858147752e+00,7.188778829192774555e-01,-8.077893439054710176e-03,2.558479852573722457e+00,-4.886275147432910249e-01,2.307267845107690771e-02,-2.411389401753878670e-01,-1.571864427203682135e+00,1.375205837221533223e+00,-1.118379735838759492e+00,6.675137284131529847e-02,3.813107852281915223e-03,-1.126705720640693853e+00,1.432657391284614112e-01,1.536139013269518724e-02,-5.297638097985648414e-02,1.870468533412432965e-01,-8.476559091011853786e-01,1.548997617994901099e-01,-3.009900158511059631e-01,1.158237505995204142e+00,-9.596975404325589487e-01,4.466943578281987182e-01,7.386901032944939161e-01,-3.250972565812379478e-02,-1.086784573632309403e+00,-5.191061631664138920e-01,-1.705537094542057264e-01,-9.887206671315476036e-01,4.935658597178594897e-01,-1.383608961856825914e-01,6.253984498451716778e-01,-2.491363856285536027e+00,-4.455728605477097259e-01,3.034885209922808524e-01,9.846942866428801677e-01,2.100034339376216863e+00,9.740843027374529450e-01,-1.236102828463916170e+00,-2.742189683365517272e+00,-5.895828920116605865e-01,3.153108493119539113e-01,-1.123667158206614447e+00,8.512978496081833324e-01,-4.101233545357211296e-01,1.046336610832258929e+00,3.061917174541601838e-01,-9.600603422456106539e-01,-9.159667186008604300e-01,5.113393938886924284e-01,8.617217873224438662e-01,-6.916207163801544322e-01,1.729821219448784753e+00,5.983310934808410142e-01,-2.185043314553440030e+00,-2.747441837253578045e-01,-3.143698111716096144e-01,8.019367239172822126e-01,-7.524383440854899296e-01,-3.149820497173744238e-01,-3.913590714385998814e-01,-1.041731299404935335e-01,3.009696781353745632e-01,-3.753693177184176388e-01,-1.097192488185720016e+00,4.907101180830588105e-01,7.979164697462969302e-01,8.116754230536252779e-01,-9.082730951065308700e-01,4.353414471426091392e-01,-3.749468152560408996e-02,-9.470682099084541949e-01,6.155023287548874178e-01
5.932250311808259235e-01,5.961756908771667085e-01,4.080209108942363661e-01,2.474812470167827693e-03,-7.493935787313267261e-01,1.850648411992188658e+00,1.158707189491959971e-01,-1.364743921589098019e-01,1.229000533167811771e+00,-1.344123422758849440e+00,8.907829347208012782e-01,-3.260903566958129329e-01,-1.089413382617353099e+00,-1.167942517319543461e+00,-8.869826264140966421e-01,6.636363395387047115e-01,-6.094606110274961575e-01,-3.279121307280211672e-01,1.566481456777286674e+00,6.999290847232865209e-01,6.508698534156550641e-01,7.108625322490093323e-02,-1.185436312786245505e-01,-1.244680175919403498e+00,-1.837319971354349324e+00,-2.041055303308531244e+00,8.264661327319139383e-01,-1.466525932316188607e-01,2.053000007547441941e-01,-4.049598397901539859e-01,2.074403900811166157e-01,-4.307891831246773995e-01,-1.016834186366771364e+00,1.610050944587476884e+00,-8.023909788788193831e-01,8.715603424569964841e-03,2.880413810485357162e-01,1.024609461693664736e+00,-3.288683844814544344e+00,-1.533090258525256599e+00,3.306833447255050906e-01,-7.232440649425488921e-01,-1.046569645356234091e+00,-1.332610473474232227e-01,-8.147002018865635575e-01,6.488595408796539177e-01,7.037047099812266948e-01,-2.675120354394009414e-01,-1.872175043676098383e-01,4.207356662371705691e-01,-7.677431494243833754e-01,-9.041257017384540795e-01,3.792814878566298509e-01,5.850298781156494377e-01,-5.124240240979364147e-01,1.010071784188122601e+00,-1.462510529711655294e-01,-1.127094068491471257e-01,1.442704409907002328e+00,1.124258384580404668e-01,2.276856436784492066e-01,4.249995560565308361e-01,2.108304079345209026e-01,1.632649532849678842e+00,1.261849307647198437e-01,8.535066732898812791e-01,4.590018185001045747e-01,-6.677642174668936281e-01,5.677126314228428949e-01,-6.737264429051825765e-01,6.077067054418001657e-01,7.548011251557971146e-01,-1.513706229999778108e+00,-4.753816520379400279e-01,-3.941596756178514793e-01,-4.464848189361453890e-01,-1.585873059379439565e-01,8.291738465932871893e-01,-2.949745272138299401e-01,-5.351339477170699577e-02,2.759585787911970067e-01,6.647582959539131975e-02,1.518969282598042758e+00,9.193312635273559463e-01,9.901698466801152065e-01,-1.136400148281266231e+00,-4.886226954619841134e-01,-1.562703225094233206e+00,-1.573418249285905679e+00,-3.999125700599273081e-01,4.471272544657584058e-01,4.287208355420555339e-01,7.323888947621487455e-01,1.430055278888071379e+00,4.719047510306421667e-01,1.491948073639597361e+00,8.851272545393181757e-01,-1.539244928177070371e+00,6.555161592932157166e-01,1.836987113493683543e-01
1.366557060096584286e-01,-3.746573443291984495e-01,5.238681731173513989e-02,-3.648371783630318809e-04,-1.113264199179260228e+00,2.134239228714972736e+00,3.998735927958246283e-01,2.132417116990054928e-01,-7.668989634310473535e-01,-1.450964276506401252e+00,1.249861114650594907e+00,-1.217259562264967787e+00,1.149855755880923924e+00,-9.335464720527473226e-01,-8.927531851950464281e-01,-2.161119443342361113e-01,-8.341172519672713781e-01,1.769509715959431073e+00,1.499387372864407375e+00,1.004464311491160222e+00,8.639053864505145119e-01,2.040453781818794443e+00,-1.229946797061187258e+00,-1.041345538708738916e+00,1.806363637136264355e+00,-1.569085228440415758e+00,-9.714356602028436649e-01,-1.680965283972402080e+00,1.271188083555464310e+00,1.018239907958816248e+00,-9.405081217516272907e-02,1.357131084881771921e+00,1.052699697310540028e+00,5.227983642436341283e-01,-6.561114048698645229e-01,4.373890094427928393e-02,-2.724874830638474021e-01,1.155738470746861202e+00,1.107682283633559805e+00,7.564111387588924318e-01,-9.269956871431689338e-02,-1.072226395463159232e+00,1.082977073817276592e+00,-2.260933998616904361e+00,-1.022134880115167510e+00,1.287001126076844637e-01,9.743393169308508517e-01,-2.179218916693747010e-01,8.094642554114301891e-01,-2.231206421603798909e-02,-1.233988667517316173e+00,1.562865936282607227e-01,-3.036660833298083784e-01,5.197373360753447524e-02,2.995621218626813853e-01,-2.220427698102030167e-01,-6.432973966609593086e-01,3.339479076125910217e-01,3.567702815770986552e-02,1.427599251106288214e-01,-6.618404181202014458e-01,3.568005730310935819e-01,-5.373887690774546005e-02,2.528613449885835918e-01,-5.921859545392980234e-02,8.356398802135651671e-01,1.763432333183309941e+00,-5.383686058887624526e-01,8.995765065890849455e-01,7.365268177298922581e-02,1.771770288292307538e-01,-9.955538820716811621e-01,-4.435802444049003479e-01,-9.549762311631682099e-01,8.160785079021189159e-02,9.326590920707859000e-01,-5.258252315670284283e-01,-9.446524804582241419e-01,6.777135431178915592e-01,-8.938129473213439757e-01,6.175674636669539197e-01,-3.008137873135924290e-01,-9.141364586176713436e-01,-1.811932374300451176e+00,6.606627254768308033e-01,-1.066302585807026304e+00,4.589716960698961290e-01,1.756578054098700825e-01,-6.611228216112551292e-01,-1.902656180064357105e-01,9.092895161945732108e-01,-7.263287679194734281e-01,1.362507956123621689e-01,5.738663182288739062e-01,-8.795877604009413320e-01,9.962128392378865049e-01,-9.775031328992292989e-01,2.909772576658447782e-02,3.087917229272770570e+00,-6.592030312646220136e-02
1.221466049097904016e-01,-4.405255518593171327e-01,1.191529778774540888e-01,2.344585184255668364e-01,3.594314428270833917e-01,-2.003821110430258123e+00,1.288230273825847982e+00,-2.672118511252061235e-01,-1.982523841647435558e+00,-1.408887567132314889e+00,-1.337052485779142597e+00,-5.463656345546419324e-02,1.477493174611937521e+00,6.314748102630934889e-01,8.119402054011716219e-01,2.923663050708945610e-01,1.057396918742379954e+00,9.679386004234312724e-01,-1.462885843859992541e+00,9.699185598715213130e-01,1.197251717215836564e+00,-1.944659915137909034e-01,-9.610134852968715835e-01,1.144276361533543840e+00,1.873890375992643964e+00,1.300430444298275479e+00,-9.569370211324655928e-01,-1.293911671414209874e-01,-3.847741340025332968e-01,2.978878302274022838e-01,1.497429307381607233e-01,3.323484722066039065e-01,-1.079059111808099214e+00,-1.922702590909650677e+00,1.008282774357599054e+00,-1.807884350919299055e-01,5.870618181996843932e-01,-1.284124868871982850e+00,-1.059214874403545004e+00,7.239286622985044994e-01,6.245568436229359532e-01,1.335512083092772695e+00,-9.473663866078342322e-01,-1.003089689389269346e-01,9.092234414182361890e-01,-2.695308611386300623e-01,-4.578972694089639139e-02,1.614841305252016079e-01,2.474790932925531317e-01,5.685522380810941190e-01,-1.180036041068991182e+00,-6.287228902127159902e-01,1.145959152519588020e+00,-6.689378714955339644e-01,-2.719320086590689810e-03,-1.225474755092874346e-03,-2.934615962407426948e-01,-4.063157826049317856e-01,-1.598622398290475699e+00,-3.154373295451982084e-01,-3.116795354388028350e-01,-2.486423316920369775e-01,6.329289665424671085e-01,-5.750910648574396600e-01,-6.460910498767360455e-01,1.215521070486812460e+00,-3.218571648623317349e-01,8.041473694715188802e-01,-1.212332120979937145e+00,-9.023342839764900702e-01,-1.438468897826569837e+00,-4.031765086517943297e-01,2.490673776580715759e-01,2.059391349558841178e-01,1.284540676470248943e+00,5.690617866918852297e-01,-1.152838269000830529e+00,-8.837525178992242658e-01,-1.329058873911010963e-01,-2.366941168684344177e-01,-7.103976073285003245e-01,3.807865899204346816e-01,8.440605795982143722e-02,-3.090557063954759154e-01,2.830338790979307628e-01,-2.491878073315389186e-01,-1.787843024531044600e+00,1.110431825968474007e+00,1.536715796266170164e+00,-4.744102351430765779e-02,1.197515721764756735e+00,6.909774006517297451e-01,1.692397881350448774e+00,-1.411133476019246213e-01,1.729177907095275912e-01,-4.826269198907786051e-01,-9.957138162588193842e-01,2.008061996620210898e+00,-8.145382560496743363e-01,-7.304586979030646132e-01
3.686642336594095348e-01,1.058432827104800245e+00,-3.222570158469715840e-01,8.790208291854173517e-01,3.809303802424242047e-01,-2.073885569575451893e+00,6.417428159089063611e-01,5.307856612589529899e-01,-2.325294357224577113e-01,1.432792143267534346e+00,7.850127577414870439e-01,-4.284898274198508106e-01,4.489564064566237134e-01,1.375506954810847171e+00,-6.343690145493509069e-01,-1.155077405720688510e+00,1.317685806364444767e-01,3.440729087889653481e-01,1.585521222652962248e+00,7.238634565938463217e-01,1.477798903430578292e+00,-2.844001601706640930e-02,1.815216351195460542e-01,1.104410373300918069e+00,-1.896874998501265619e+00,2.597480657693956307e-01,-7.868227198572607106e-01,6.410697907539972817e-01,6.342159685146315784e-01,3.258804225291730972e-01,5.681338154735030704e-02,-7.685809527282597697e-01,-1.127167387246138297e+00,1.101432372349692823e+00,8.525553912297466619e-01,-3.487133791474019556e-02,-9.985846423796022886e-02,1.260335945704674776e+00,-1.072257396777210436e+00,-1.625055907549815409e-02,-5.231056762434139751e-01,5.336033901718963968e-01,-1.076927063816118357e+00,2.473700594914157377e-02,5.073917150018384392e-01,-2.845790660893390278e-01,-1.627255004522724535e+00,9.253569475371176134e-02,-8.141620722096654106e-01,8.297751645449946700e-01,2.611041983069216421e+00,1.300165908937603865e+00,1.267495134354652553e+00,2.374712088156292755e-01,-1.397716771667266933e+00,-5.441182604885131946e-01,-8.693394484623066798e-02,5.946357029716341502e-01,8.011519808793823305e-01,-1.927516116894786857e-02,-3.700596261820159882e-01,7.490227125288493326e-01,-5.071816488161536851e-01,3.486809302368968355e-01,5.338118602398442825e-01,-2.591222010551540667e+00,-8.250692236983222516e-01,1.428391005795758839e-01,-1.199855717479241524e-01,3.825734193029977082e-01,-1.046030041120238341e+00,9.141875976193625242e-02,1.297993900870945128e+00,-1.053715325707193617e+00,9.479358371434477570e-01,-9.244390640454104302e-01,-2.182394930803534638e+00,-7.770715221731361311e-01,-2.653398414304988795e-01,7.057157369495344890e-01,-6.256294033364195872e-01,1.895584651145227340e-01,2.791540688141006532e-01,-2.167952123010959131e-01,1.038399820240415217e+00,-7.339084300181267784e-01,-5.357984516067018088e-01,-1.962611985223124411e-01,-1.595994215755035528e-01,-3.958055234783022236e-01,1.097123699687416520e+00,4.898297916399809715e-01,-9.870576114893385433e-02,8.217159466989899519e-01,-6.457200427181174485e-01,-8.601874816305828952e-01,-1.949749955616823516e-01,-1.617448517485386983e+00,-5.503931525404717195e-01,-9.835194053586049368e-01
-7.955357339496692548e-01,1.741803017614526494e+00,4.875342176001238870e-01,-7.181537598636711373e-01,7.457685222496059085e-02,2.239804917598602757e-02,-3.124281287047922517e-01,-4.999526995747269886e-01,-9.877156096865430390e-01,1.064530367310750902e-01,-1.391697411397626372e+00,-1.840533084154859722e+00,1.433489062970526140e+00,-6.538620836479788201e-01,1.287892929071948300e+00,6.995876733754088361e-01,3.979235848395684672e-02,7.100067680290224059e-01,-9.517184989559057239e-04,8.852357187235102010e-02,2.637679493441137391e-01,3.270751687219795173e-02,-1.807050860628615641e-01,-1.915090216506244225e+00,8.044683648876074789e-02,-1.675743195068007396e-01,-8.173868318969359503e-01,6.847647615512679753e-01,6.504088291698320035e-01,3.313920144574754367e+00,-2.404604026209709033e+00,1.235145844279299937e-01,7.531632358167959784e-02,5.330040651652189210e-01,1.542916555660722056e+00,1.370465707793236732e+00,-7.775702620584327152e-01,-3.688199597361953991e-02,7.996956688178327721e-02,-1.439204414349256611e+00,3.601565877024981432e-01,2.261207606117013602e-01,-4.010615274221821652e-02,-4.266886070896910299e-01,6.373054383824904301e-01,-8.765111249125255855e-01,1.039802580753357297e+00,-1.106283112229371035e+00,-2.011771390824399486e+00,1.013014118705413358e+00,-5.409491265676067417e-01,-1.089008079637442838e+00,4.378233221829515021e-01,7.092811133748461172e-01,-7.078787654601453871e-01,-2.094748569183691178e-01,3.312819330009618146e-01,5.813544576355168525e-01,1.083769133139036223e+00,2.541575449377254881e+00,-1.292476463690477306e+00,3.463969375536205542e-01,-3.878482790438267935e-01,-4.425125570263918062e-01,-1.375365369395919746e-01,3.858471317984148441e-01,-3.946938400745979569e-01,3.266263594022422723e-01,-5.078071707915761401e-02,1.006595016540529630e-01,-1.320733669723986647e+00,6.528859615254707371e-01,-3.550387276913152257e-01,-9.331308626586326538e-01,1.494766538380287280e+00,6.519402422412102771e-01,-6.908241329082971394e-01,-9.935872814309065770e-01,-3.382823981572969374e-01,1.125149829419421543e+00,1.193374825054994925e+00,-2.461880515042475237e-01,-1.589573084833810768e-01,9.455111200739717559e-01,6.946271236563487106e-01,-2.209615850395005299e-01,1.962896842704846545e-01,-8.323717503646976823e-01,-4.048198365029974655e-01,8.127658736997789291e-01,4.663060690209427372e-01,-1.142434924100081517e+00,-3.975731584033226906e-01,-6.928115392324080135e-01,1.809838781697564958e+00,8.326106547703630012e-01,-2.240316749116707751e+00,-3.895530977377682502e-01,-5.519625625761406251e-01,-8.675824006740079364e-02
6.071655991152692389e-01,-1.474836478910444226e+00,1.123759188378015000e-01,3.827203297015404626e-01,3.471500955160269353e-01,8.414884522104021380e-02,-8.851334026226993779e-02,-3.198867200460965288e-01,-1.895931003886648092e-01,-3.850931818716346600e-02,-5.074656668679502491e-01,-1.276869198468499444e+00,-2.768766937404915085e-01,-9.955479280555787347e-02,-1.554753688417063150e-02,-2.188161805606928245e-01,-1.270516415937456900e+00,3.780781661684396999e-01,1.042384993263955652e-02,-2.439485696974145849e-03,5.207287585490382176e-01,1.835419642087379732e-01,-7.862595415874229499e-02,1.877069393030803335e+00,-1.561800076995116804e-01,3.313996145841562879e-01,8.783344269218537614e-02,3.504009272695820520e-01,2.585808727905206439e+00,4.448232708509338162e-01,2.238279477453176458e+00,-6.993334456285670298e-01,-1.910392764165374721e-02,-1.528109318546143403e+00,-1.225283770076037060e+00,-1.354737398850730745e+00,4.937385457023135693e-01,-2.039717417291536938e-01,1.986231568396661096e-02,8.684546604657384927e-01,-5.611088266205616071e-01,2.718730646363567982e-01,4.314581286685053446e-02,2.502847215253976021e-01,-6.139953510159613659e-01,1.251985731677938696e-01,1.805276898172523958e-01,1.268809471726788374e+00,1.587384329148378903e+00,-4.765874383436177752e-01,-7.451078114533040697e-01,1.296208591628151829e-01,6.909734385057280104e-01,-7.387330094528407054e-01,-7.545036818549565316e-01,1.687227450698747022e+00,-1.141979900008170956e+00,-1.510744192153148813e+00,-1.808885229560105001e+00,-2.532182614508228458e+00,-1.491815535637201595e+00,2.431025118385586214e+00,-3.617591538120212835e-01,1.012737846713900325e+00,2.011890148069462037e-01,9.736297102990651986e-01,1.854910832852632308e-01,-4.187087723686783169e-01,-7.781010588859188504e-01,4.602578947099891238e-01,5.998074270729629454e-02,4.288316747984929345e-01,-7.533468779925541758e-01,5.052193267374626151e-01,9.700275924033402442e-01,-6.484894239335862176e-01,-3.085563275723267052e-01,-8.859100484273785270e-01,8.952161796775082170e-01,-1.308992119304679402e+00,1.352648152944505355e+00,-1.619759086025228223e+00,-2.674099481653167132e-01,5.278618611121920212e-01,1.270453701463704343e-01,-2.212426309609752728e+00,2.768430530923727817e-01,6.959961547938695592e-01,1.932795107119975819e+00,-7.562489670087706450e-01,5.107593069260429886e-01,-6.154493495062537955e-02,-9.363098311166165866e-01,1.200634452618703163e+00,7.116034066102069344e-01,3.098932511862294292e-02,4.742919260923127434e-01,1.330381970066010222e+00,-7.370384470311353020e-01,-1.056033473458475314e+00
6.621029149213220055e-02,7.273305398130185118e-02,1.571017135410764376e-01,-1.167287684054965080e-01,-3.004803888073153684e-01,2.962512102464594232e-02,-1.789670119836971399e-02,1.093894823628643181e-01,-2.502928322467056765e-01,1.333219411619500916e-01,-6.024019450721908031e-01,2.686881909933116694e-02,-1.662214643527904767e-01,-7.700354843346453038e-01,-1.875057462199885838e-01,4.166263059210443265e-01,-3.470804289140395071e-01,5.263560338257273763e-01,1.070038802861831284e-01,-8.558609780613865570e-02,-1.600502937609514509e-02,-3.785217330420611037e-01,2.060493520339663209e-01,6.346402323362243525e-01,1.768545466221432549e-01,-2.778238455738616178e-02,-2.513570714039164433e-01,-2.573005819158058483e-01,3.788780265093812383e-01,-1.761492514909393514e-01,7.203937950082234254e-01,-1.992366965242501065e-01,8.846080613556761563e-02,-7.892209858007180889e-01,1.503836848824710304e-01,4.209033381458937573e-02,-4.751399616145821764e-02,7.916951297095644602e-01,-1.021994345500107482e+00,-4.029512463380988813e-02
7.154573702704533633e-02,1.175217369784795490e-01,-1.309846020881403617e-01,-2.114357495339344861e-01,-2.691642979611014730e-01,-5.308619756056726091e-01,-4.815780990914770437e-02,3.216816687617584103e-01,-3.227841846964761841e-01,-1.582503541428906535e-01,-8.734887974953906564e-01,-5.983721016950335758e-02,-4.750889761918897225e-01,-7.695456857865234923e-01,-1.943711404138054877e-01,-1.912316183483276089e-01,-4.799320582127170054e-01,4.974301715526707746e-01,-5.345446754907396542e-02,-2.682980807648785437e-01,-3.191203646989207443e-01,-8.885376215376107334e-01,-1.306049140595733349e-01,8.560537979735785008e-01,6.292071453624940025e-01,-2.435401434256723174e-01,-1.048375034988156644e-02,-8.309329571781910451e-01,2.253647156212458258e-01,-8.876623984061556005e-02,1.120717157565693345e+00,-1.756995528920521077e-01,-1.780083895122812621e-01,-8.097487264131668638e-01,3.579344296697804517e-01,-2.148282113402776861e-01,-9.251382199637094017e-02,3.233520602518018539e-01,-7.561849809087157759e-01,-3.649325445145180646e-01
-4.043752856281820351e-01,-5.794861355118563484e-02,4.256041974894396174e-01,1.044576933515160011e-01,-8.503364122922299484e-02,-6.977391744540043517e-01,1.099192938001616882e-01,-1.151986132063721469e-01,1.358015985006417459e-01,-7.861769132781624980e-02,-6.526666139244190479e-01,-1.862982173854719481e-01,-3.741660969128439707e-01,-5.134428017144084672e-02,4.443523782466323596e-02,-4.152789485595004965e-02,-2.311920130823341135e-01,2.881902671400541904e-01,-8.706538232777921715e-02,-2.205721972330912106e-01,-5.569107936620717320e-02,4.894660997740110653e-01,-1.096241395881134284e-01,1.935476284388355783e-01,-9.079794438192088923e-02,4.318212034474145505e-02,-4.041171846050120586e-02,8.220128790607489355e-01,-1.963929169968852556e-02,6.172773521574765471e-02,-7.312510318161316580e-02,-8.913980839725582639e-02,1.229421884964640999e-01,-4.299100124228449338e-01,-7.736600732666311375e-02,1.823985104461926451e-02,-2.254026929084603226e-01,2.480704455296543764e-01,-3.139404071402911445e-01,6.511620904680859821e-03
-3.495747520477912595e-01,1.251547563787287209e-01,4.449027566838409040e-03,3.407513631538407195e-02,6.460218993327895842e-02,-4.892390141439891815e-01,1.045282154696822174e-01,-4.501899210201466828e-02,2.861585373053865400e-01,1.552269208523788524e-01,-5.628923249812073371e-01,-4.608220817750922210e-02,-4.125722014289564393e-02,1.668206693054940237e-01,2.399349215617298525e-01,-2.739092748060139582e-01,-2.613961575314721619e-02,-1.524535797160655459e-01,4.439517584216400303e-01,-1.338543972598878473e-01,7.085790064615717088e-02,4.215772143437918063e-01,-4.567132233587473805e-03,-4.977498578977377353e-01,-1.262947132460131572e-01,2.488385126395833702e-01,7.290735588327548755e-02,7.811801934731605890e-01,2.249569447861101135e-01,-4.526616835294013375e-01,-6.847773283079325868e-01,-1.726470112615318131e-01,2.415494015741513345e-01,-5.806666404088880462e-01,4.972327470215502643e-02,-7.157042260151412483e-02,-1.451962652397748889e-02,6.594449590491840985e-01,1.889644441623566651e-01,-1.792387342077424728e-01
-1.653096240771316783e-01,5.474900611583642662e-02,3.212943330538611253e-01,-1.634076916176001315e-01,-1.207785053427980343e-01,-2.099048917782619650e-01,8.370033942161016205e-02,4.253366624176405097e-01,1.773066247630695480e-01,-9.626009941152927074e-02,-6.540428205129015238e-01,-5.677065158119992162e-03,-1.908881544915701778e-01,-6.697207451155179347e-01,-3.621319621560502022e-01,-2.511562587009663616e-01,-3.520678542600230165e-01,1.789114810849082304e-01,-2.016402217711013856e-01,-4.564453276575244217e-02,-1.095876877190658794e-01,-2.021506706230970785e-01,-1.692878031029761698e-01,3.161398906523733565e-01,6.442005902208581825e-01,-1.027275608686155361e-01,7.142623556674375374e-02,-2.932359360295656581e-01,-5.924101673202765428e-02,-6.490195071170019869e-02,1.910072461132572954e-03,-1.264396930499439853e-01,1.391012337182470360e-01,-1.402963022299373030e-01,2.755815831660089754e-02,-4.929943649584098142e-02,1.351085216459382496e-02,3.861583302073983148e-01,-3.155489144065422580e-01,-2.919563798105953012e-01
-1.507820107428003709e-01,-1.554290957106564397e-01,4.404811188333119243e-01,-5.796567587025424073e-01,-3.009971668144527657e-01,-1.130622892468974433e-01,-3.429931600651814350e-02,7.253646160647669872e-02,-2.742430493612128539e-01,-1.425370904307611541e-01,-1.096013345561916541e+00,-1.292220924419567041e-01,-3.904734649678517355e-01,-1.081910095752703249e+00,-1.398572503862648142e-01,-3.609289662486847017e-01,8.594864070261218347e-02,3.653435163929659724e-01,-2.303106173371400889e-01,-1.589637821596747436e-01,-2.836262610998852574e-01,-6.635219683394182333e+00,-3.889545943416519713e-01,3.741928856045177720e-02,9.098784110495197197e-01,1.444427795346339138e-01,3.536441092318640123e-01,6.383401149276916485e-04,-3.570474581281873894e-01,1.792353717170003247e+00,6.813347001467481290e-01,3.831969976417364254e-01,-2.597883788469907418e-01,-5.690041640818745139e-02,-4.583379388852323877e-02,-5.453368917647391512e-02,2.781858004177181418e-02,3.771685071832451830e-01,-7.491047328625605184e-01,5.010858100412709515e-01
-1.396867025986208433e-01,-1.066989246172267147e-01,-1.627320224615296657e-02,-5.669266129407107141e-02,-2.849183471333856590e-02,-7.490201866618486325e-03,-1.405872252276299528e-01,-3.528418402433669554e-01,3.097122661204868010e-01,4.611775609997012526e-02,-2.119909019266081607e-01,-8.192449324800635257e-02,1.234518696856662795e-01,-6.030494563593240265e-02,1.852487916259902001e-01,2.776829291163927516e-01,2.090722957837964080e-01,2.610357689231018741e-02,6.641666584177894350e-01,-1.344163138933899826e-01,-5.217175645219216708e-03,5.924884010033659720e-01,9.621420864878384160e-02,-4.387564810110203273e-02,-8.047277173766351765e-01,-6.892874421669921425e-02,2.405339609823586161e-02,5.744329027518342290e-01,2.580247207130997311e-01,-2.591526571785167099e-01,-9.823654102284933298e-01,-2.616057087413888316e-01,2.354345419693284758e-01,-9.430243486519732099e-02,3.510494599748857913e-01,-1.377874425760207966e-01,-3.436123107646209540e-01,6.676746389410556093e-01,-4.552083770275917041e-01,2.045096016730809929e-01
-7.792741009440859457e-02,1.987369642583324270e-01,1.735135604867396597e-01,1.840790558675334532e-01,6.162394332083528936e-02,-1.504134900316715651e-01,-1.411968623177110027e-01,-9.316097243111050308e-02,-7.634885289033108147e-02,-2.780376580049499086e-02,-3.480001179885369167e-01,1.550412916807951680e-01,-2.603184475919445018e-01,-5.954959955615130029e-02,-5.290196594486273884e-02,-2.110898093277610924e-02,-1.285034463711254571e-01,1.918504038489038388e-01,1.523109951548486107e-01,1.144172034234096358e-02,1.258036895657591581e-01,-1.177556015176516313e-01,7.803837846119910347e-03,5.851858028328233985e-01,-1.366825864731290585e-01,-4.120162603428117326e-02,9.625740407818764166e-02,-7.475745794812616030e-02,1.321355656005646084e-01,-1.323598657070416962e-01,-4.862071475688760358e-02,-2.237507549712399596e-02,2.087395328638105840e-01,-4.140495192242704126e-01,-1.280224470105961188e-01,2.149552153380707153e-02,-2.580459203660098177e-01,4.180560711875392355e-01,-2.916811060281962464e-01,-1.238265073941886840e-01
1.403670284780125233e-01,-9.895267933773353730e-02,-5.128241464628350288e-01,7.233601637583080002e-02,1.477510801823526398e-01,-1.801873017016536738e-01,2.089551002458291951e-01,-3.621872625618816066e-01,8.588510514913996752e-02,-2.472119948835282688e-01,1.759930995980498070e+00,5.423488221023607669e-02,1.644897765464094497e-01,9.345912983861898171e-01,-9.211491735005165882e-02,-2.938582190270829786e-01,3.691949713408249067e-02,-5.695004526734483985e-01,-5.765808601286176449e-01,9.533246366023362395e-02,-2.310085310826599236e-01,2.108555330658942184e-01,-1.006472364058270952e-01,-5.554326554490626178e-01,-5.419448869654462930e-01,-1.251151925204078974e-01,-7.903987463795143775e-02,5.070090556502244994e-02,-3.653850408152865548e-01,-1.188726802060209448e-01,-9.395196334687017092e-01,-4.038859873780916709e-01,-3.362169021101653610e-01,9.447448945461081049e-01,-3.605740881875516557e-01,-3.495136926961278645e-01,3.000200088439112719e-02,-5.178541124409473673e-01,1.178150065492920895e+00,8.559841293220457614e-02
1.843948286549368376e-02,1.839282812023482483e-01,-3.991643590012927678e-02,2.557573634854660716e-01,-1.627637027647240719e-01,-3.314850975492119045e-01,-3.975839989024724797e-01,-2.639188736215217768e-01,2.059343320680475098e-01,5.418087186732277460e-02,-6.077080658648334466e-02,9.454855905602335686e-02,2.246856658216762337e-01,4.095675151553652693e-01,1.850430358081678328e-01,-2.443646154778002927e-02,6.672762323115423166e-01,-1.226154348766899549e+00,2.344146342125572602e-01,-3.458078649146806294e-02,-1.841045703205618222e-01,3.348993858020072323e-01,-2.697302265528793153e-01,-9.636059509647195709e-01,-1.874691747413955500e+00,-1.105601500177484237e-01,-4.282956689463221500e-01,7.431425696355130617e-01,4.679791838667246018e-01,-1.350752785103934484e+00,-9.604840994347477734e-01,-2.928783897586486121e-02,2.496425037581425088e-01,1.092881618135673083e+00,-7.058082496867693068e-02,1.736241142396788284e-01,2.868446539435485707e-02,-6.965988581843680916e-02,1.733603594959455263e-01,-2.236703089295731528e-01
-5.696801538159785849e-01,1.145615520665952680e-01,5.365044630295712214e-01,-5.082051189253767864e-01,2.306712490847811353e-02,-2.030407295505312071e-01,-2.217845465374038150e-01,6.029098250743445409e-01,-2.493551057030266860e-01,4.049147262083185872e-01,-1.013625430225771007e+00,3.431943678710891454e-01,-8.878135094024350860e-01,-8.033517238497066559e-01,-2.426636635328142111e-01,-1.514805555948449955e-01,-1.370032678413763971e-01,8.661519794204626255e-01,-1.011735585868727971e-01,1.857143414400026504e-01,-1.521320179431865510e-02,-1.108747007007759300e-01,-3.008352509051325646e-02,7.901674594301359988e-01,4.960337082830119648e-01,-3.564661107909534998e-02,-1.801881666523513503e-01,-2.578695132000807244e-01,3.084030958839950043e-01,-5.295011895381462191e-02,1.025504641610832213e+00,4.401946991139853438e-01,-2.528552541535196707e-01,-7.391794101813577988e-01,2.417548426008528650e-01,-1.581561568662570860e-01,-2.923308374227320816e-01,3.566189232500563966e-01,-8.573985623375656173e-01,-2.519186035427322112e-01
-3.170181310415416676e-02,-8.014421327410134466e-02,-2.958007493420778955e-01,4.813354383408099402e-01,1.456224839087487052e-02,2.240206886134588245e-03,-6.490708197671850310e-02,-3.080615855701124839e-01,-2.240671251052145652e-01,-3.423064094914929911e-01,4.668958534438857888e-01,-1.447346968952594182e-01,4.106172307046254133e-01,6.173560465004294118e-01,-4.362231010493347605e-02,1.452878393686328484e-01,2.580813421285366172e-01,-3.060880703352801269e-01,-3.944534569969455201e-02,-3.334293281911834828e-01,-3.028107136057760565e-02,9.725087558344774896e-02,-2.690813189405682451e-04,-3.745338624359654811e-01,-6.107696426307802628e-01,1.029684447172943274e-01,-4.347819660146219969e-03,6.546303233485005479e-02,-1.428369302756879733e-01,-3.881644815831880591e-01,-1.075207463317904955e+00,-3.831291469614664380e-02,1.542966214912825651e-01,4.290576601167076509e-01,1.970488841529547397e-01,-2.309475903967179444e-01,2.223160406733492578e-01,5.116372356340093130e-02,8.450365656677136794e-01,-4.268435268756036183e-01
1.067480713394989150e-01,-3.129076789112130164e-01,-1.455684545407519015e-01,-1.662457131170303748e-01,-4.937347686099870236e-02,-8.701420648248431311e-02,-3.163205872718788947e-01,-1.286101083277063351e-01,1.446623817470636848e-02,-8.452078703413651306e-02,1.193830869263935002e+00,-1.709237103639434929e-01,2.796123860457184196e-01,1.145814030883110402e+00,2.691319357039487215e-01,-1.178464263037602017e-01,-6.474992961973094485e-02,-4.809141973626014921e-01,-1.150610353366762068e-01,-1.617997550252433248e-01,-1.067774397885448701e-01,2.345374036171203047e-01,3.715791652582359217e-02,-7.444039586320023716e-01,-4.747876181079906388e-01,-1.923205478944937097e-01,-3.406587815479740211e-01,2.195373046870147393e-01,-3.666321521610566569e-01,-4.105993735720168125e-01,-8.652398911039285156e-01,-2.682301782812992474e-01,4.667504068666527561e-01,1.029325390992821720e+00,-1.930849617600278179e-01,-1.869424238672900418e-01,-2.889279858183770727e-02,-1.493846285897386383e-01,6.715209287217355216e-01,-2.083044612069642754e-01
-4.481295141505236002e-01,-1.588226639004494956e-01,5.235479708078725203e-01,-3.462232758680854339e-01,-1.916878407204714377e-02,-5.391787347544743092e-01,2.854285316372207407e-02,5.930725798254261605e-01,-1.929134578210186801e-01,1.290250017897680013e-01,-1.305809691670656525e+00,9.403088284917311690e-02,-2.309571115010894682e-01,-1.114073276868854823e+00,-4.685470261801756298e-01,9.761641205975989111e-02,-8.746815531225965445e-01,8.059084987303660741e-01,9.978550237031848236e-02,-1.188252243972188066e-01,-1.038844684627991816e-01,-6.867239049507769533e-01,9.142248911282493951e-02,5.150539995121327097e-01,9.071468083451675879e-01,-1.007441969824982020e-03,2.141535149372736091e-01,-4.404150715095824786e-01,-3.678784508843956913e-01,1.013478777098606766e-02,3.343042378447341756e-01,6.911216147595070081e-02,1.360140848153954252e-01,-5.493868486914668114e-01,-3.166807856099376206e-01,-9.072882387539361881e-02,-2.257585715041102170e-01,9.389119609966710411e-02,-1.011182379390110464e+00,1.220125483317362758e-01
-1.925019033575243732e-01,3.358771077515949610e-01,7.221507253720549357e-01,-2.822362673656269028e-01,-9.698828915667716266e-02,-4.096555423765756987e-01,-7.120527951963523394e-02,1.355105418105924664e-01,-9.370358916866533550e-02,-6.763345747543894615e-02,-4.763137236644719996e-01,-4.891838538347689086e-02,-5.485267148620039945e-01,-7.251033304038670968e-01,-2.054622328278345456e-01,-1.029551148533139476e-01,-5.934764629770805655e-01,5.509838600062240133e-01,-1.361273708304750474e-01,1.516285368831767622e-01,1.615216035334800793e-01,-4.182942615603887915e-01,2.145244334664681007e-01,4.416740427352486287e-01,4.929968227624658694e-01,-1.410873242386460613e-01,-6.142431412879451047e-02,-2.653807333819248673e-02,2.707664786631336917e-01,-2.638539384225975504e-02,1.059685241163709657e+00,-3.137211517396937960e-02,-3.889934100779310344e-01,-4.224651526489336950e-01,-5.174892554471356015e-02,-1.677038651727411900e-01,-5.278944995296926818e-02,7.071145560904853467e-01,-6.393295893290724674e-01,-2.442372721187771878e-01
-2.106913311422727308e-01,5.636996606530054327e-02,1.007830261253632315e-01,1.858425030008162282e-01,-7.656493788237800011e-03,-4.099508150781671634e-01,1.503862376989996419e-01,3.363968826516952702e-03,2.894047306297370947e-01,2.449490744595532715e-03,-4.173413528880263179e-01,-1.119367954407087667e-01,-2.756552163920940046e-01,-1.305389559937752686e-01,1.261592126700070149e-01,2.540061121408800915e-01,1.236893353029366593e-01,4.101579974545863649e-01,-9.419730192243486178e-02,-1.182230246269998369e-01,-6.818419363284222712e-02,7.003049254755334962e-02,1.419043977916165447e-02,-2.082531296475060092e-03,-5.672910377128781434e-01,-9.272215451762054472e-02,8.508770539093728213e-02,1.885105985132257134e-01,4.517560133317554127e-01,-2.007465237070255593e-01,2.563901449304597374e-02,-1.199349128842950307e-01,5.046811601355726262e-01,-5.033065271993883982e-01,-6.936674521716099107e-02,-4.702152540390603513e-02,9.863565082244898918e-02,6.300684166786829632e-01,-5.258610489424014184e-02,1.642495035473088838e-01
1.445732641589277667e-01,-3.725489687956273221e-01,-4.318351551302713753e-01,1.714796163673492080e-01,-1.871708183125460889e-01,-1.023225094182578787e-01,-6.073786469552270445e-02,-1.957259747564990826e-01,-7.039731692159685583e-02,-1.986335942279542355e-01,6.470376517445032283e-01,-1.543467215346890908e-01,3.217197887015076918e-01,8.460901922077905812e-01,1.047514154109383255e-01,1.669135335375029616e-01,5.512854700477529124e-02,-3.145693763226402040e-01,-3.247835401268908684e-01,-2.057806548223452825e-01,-1.029959989868973191e-01,-9.334897066734057502e-02,1.300410598670194602e-02,-2.130673650422118814e-01,-2.423429003163768691e-01,3.148352459064426290e-01,7.615169357209257417e-02,-2.415024817147408062e-02,-5.865713703714644511e-01,-4.391495515650774562e-01,-1.081208039858106984e+00,-1.048375841147663884e-01,1.067058078336549226e-01,6.350245323795257191e-01,-9.416538380876525449e-02,-2.700290685009481551e-01,3.273945983446132080e-01,-1.883055878770530378e-01,5.915962414248435719e-01,-1.455922321704855860e-01
-1.602365397315583251e-01,-9.024120286883464959e-02,-2.279589085557583439e-01,-1.144910907869377548e-01,-3.105555313028789122e-02,-1.344750032583562627e-01,-2.879517705301492536e-01,-4.088167427521472441e-01,-1.488621534238902810e-01,-1.155971759843715113e-01,8.759505789602370918e-01,-2.042170290602697558e-01,-1.071734141509093768e-01,6.772114913596255503e-01,-5.358384019977902035e-02,-3.041974969810651852e-01,3.400581272387154796e-01,-1.598889442615686607e-01,-4.538690247566060654e-01,1.045572224506872983e-01,-5.634033346046579509e-03,6.072118865039917157e-01,6.662579777872489062e-02,-5.295285531878353158e-01,-2.270255326869689561e-01,7.849620369707648038e-02,-2.958944254659967021e-01,9.733431629580117928e-02,-2.600332432415029538e-01,-1.391578531561957488e-01,-6.837172662931471079e-01,6.670743182524491166e-02,-1.728111700734716871e-01,7.226537053845123459e-01,-2.384487176589188406e-01,1.468250418081847586e-01,4.362981667036689437e-01,-2.707369467330905111e-01,1.030273606562340794e+00,-1.241465097161437575e-01
-1.755142055609716922e-01,1.381949028519426359e-01,-2.455936450755824119e+00,2.194955464942563717e-01,-4.647846169633735626e-03,-4.441295525403472499e-01,-8.717148295472951225e-02,-7.409840051983415110e-01,1.332071277381036423e-01,-1.355439061428261038e-01,2.699463947262817909e-01,2.796120567351697561e-01,4.681922505784339439e-01,4.136169764992216891e-01,3.119338781057605647e-01,-3.141901846568220802e-01,6.615659072226086623e-01,-7.279050878788432266e-01,3.858356385098625774e-01,-5.505761038364713478e-02,-1.791962504175918444e-02,7.946612892246578408e-01,1.807419561355135817e-01,-5.050595097534058553e-01,-1.594180802328898583e+00,1.881892695348065803e-01,-2.933926187529883184e-02,-1.803932003010021712e-01,-9.849236657033672016e-02,-3.707430565902956054e-01,-9.701330711796712913e-01,4.095828530380781624e-02,3.579362147887649170e-02,7.784369642508447429e-01,2.021009098779819879e-01,1.166277488152223374e-01,3.636729850362908079e-01,-1.608133627917731623e-01,5.696685075766693140e-01,-2.087660432538160638e-01
1.238679673392602959e-01,-4.116692560220914787e-01,-2.615797179612704415e-01,9.460900899499040742e-03,-8.940543298873966649e-02,-7.574297916992051016e-02,-2.171946328593431508e-01,2.183487506163699771e-02,7.017562420866854667e-02,-6.588498112322833944e-02,7.401787651569026183e-01,-3.221752971811118194e-01,-2.229168231746082307e-01,8.450735289892309376e-01,-2.979024421948159862e-01,-4.267111252306667324e-01,4.970776196615891984e-01,-2.395077385962519068e-01,-3.879323366781979310e-01,-3.094475216405295770e-01,6.036473403922189632e-03,-6.137338397327332662e-02,-3.129790553332029712e-01,-4.239617500306248621e-01,-6.779576027964639984e-01,-1.148701588176315319e-01,-1.879036292493147520e-01,-4.746813150021773897e-02,-2.520284519530555656e-01,-4.106359800129600335e-01,-9.556839270383125085e-01,2.109455365073138189e-01,5.280168746923921130e-01,7.153283218637475072e-01,-6.660401017330290496e-02,-1.139753237120813140e-01,4.041163135075427348e-01,-2.694049069106040362e-01,7.380077072081804301e-01,-3.603458470473774877e-02
9.164874227337696522e-02,4.690639633573155665e-02,-9.538827388184106804e-02,2.338361684223525250e-01,-2.256014368906970879e-01,-2.427977031957823384e-01,-3.132583126619827296e-01,7.600596660650071890e-02,7.484826574010647326e-02,-2.014043075138141070e-01,4.675594763033202317e-01,-9.055400120239263939e-02,2.134049080099307757e-02,7.703314874603361950e-01,-1.331744940953067946e-01,-1.076521811195813999e-01,1.591381630420464766e-01,-1.723173996684407017e-01,-6.376838908628504332e-02,-1.478950181331586122e-01,-2.606133053362004737e-01,2.868755867297051454e-01,6.220247570910977103e-02,-4.244731530926327823e-01,-7.146601947873802985e-01,6.506640892458726011e-02,-3.183008271816020057e-02,-1.937319183706920911e-01,-6.575894960072713458e-01,-6.972093570224330294e-01,-1.039628564357761187e+00,-2.153085900089814209e-01,1.387983971745188894e-01,1.790390550223256994e-01,1.090726130431651092e-01,7.545256231637757771e-02,4.068401725091679300e-01,1.012287282062936805e-01,6.263599462888156388e-01,1.049638852447057069e-01
3.205770881888515556e-01,-1.420122342030395168e-01,-2.356448992470050463e-01,5.356655630028949178e-01,-1.657512310146346257e-01,7.588533793808356631e-02,-3.012968685042997641e-01,-5.911044594054146728e-01,-4.700218357965744997e-02,-2.894147770217205817e-01,1.180871110328034490e+00,-6.251629301168613873e-02,7.579129158280252521e-02,9.959190555165660097e-01,8.450792701005538365e-02,-1.826071641062644857e-01,7.165148439055246676e-01,-2.282897466928391905e-01,-4.352468602938314862e-02,-9.670255872730647295e-03,-2.042298789367327505e-01,5.902002011420566241e-01,6.456494216877831094e-02,-5.717781818484554135e-01,-5.311891628464976423e-01,-9.034240472539596667e-02,-1.386768882647712309e-01,-1.199555947951980589e-01,-5.032345239966191652e-01,-1.379847076606263989e-01,-1.328045700850153610e+00,-1.168666153051273332e-01,-4.093064299975698317e-01,6.457767243226536502e-01,-5.107218842467643460e-01,1.448093138774638189e-01,5.721675999615968289e-01,1.084817088691750059e-01,8.969426823952678651e-01,1.850090407766136202e-01
-2.715923103874792188e-01,-1.398203784116692772e-01,-8.128974050226664416e-02,2.766136279257533914e-01,-1.092339968689198387e-01,-1.384721944920846437e-01,-4.175511112318372464e-01,-2.357210552062812270e-01,-2.267816747763989615e-01,-2.427753594741225429e-01,8.324479151892724138e-01,-1.373810751677125297e-01,-1.250192753417168345e-01,6.521137790430242553e-01,-5.774901982432551623e-02,1.840859429127039357e-02,1.727528558321612395e-01,-6.847393752656666388e-01,-1.905704487787018009e-01,-1.025751081782257795e-01,5.365357868546320221e-03,3.690816156326243713e-01,-1.489940251239214031e-01,-4.798494203342005271e-01,-4.996591263404063787e-01,-7.407408193775034955e-02,-2.330217737176669135e-01,-1.240598546463701907e-01,-3.341470569738671514e-01,-2.108831442759531022e-02,-2.522990919763558049e-01,4.408898399135223745e-01,-1.751663088613110708e-01,9.766688329976547234e-01,-1.077276100310350926e-01,5.883323731389328293e-02,7.856778579539501484e-02,-3.871293076035424718e-01,9.987465168331168819e-01,3.172889458487229003e-02
-4.861511031644860092e-01,-6.698099379990306301e-02,3.180838147298574725e-01,-2.998164114571562622e-01,5.715210251955417375e-02,-2.179187723039031077e-01,-2.232394879642811691e-01,2.967769681342611321e-01,-4.712619332943036587e-01,3.353358082288123709e-01,-4.966893071961777650e-01,-3.978790434856046415e-02,-3.669286568232176249e-01,-6.750604678654698043e-01,-4.556426853061244509e-01,-2.228585647385889629e-02,-8.679984734094684518e-01,7.910661646724258533e-01,1.081166661621607156e-01,-2.422072230843983764e-01,-4.912319716397298142e-02,-6.662618406317933895e-01,-1.665777397668408433e-01,3.678170382113297721e-01,6.690424838644556393e-01,-5.241476901135222466e-02,-2.271019571141444371e-01,-4.838471026008214215e-01,5.062048606444160548e-01,-2.335486530851096643e-01,1.213669696911472418e+00,5.603874241173349008e-02,-4.713060216110188660e-01,-6.861343396861724342e-01,-1.771371303869723191e-01,-2.248124685352539120e-01,-4.057835515799938508e-01,4.516600697879842863e-01,-9.295289618284533484e-01,-6.821709974991697900e-02
-1.310255936942202326e-01,-3.944746993908572197e-01,-3.261679746414697378e-01,-3.976220112081633173e-01,-7.117654889377336702e-02,-2.615832199424829030e-01,1.270587431893525632e-01,-8.019771150284042693e-02,1.906489144359991839e-01,-3.440358500148072429e-01,7.393973944152486266e-02,-3.889470350902966000e-01,2.002160763248375941e-01,4.739992414677854926e-01,-9.323306384377227918e-02,4.110971502157335401e-03,2.312636411034624806e-01,-5.006531131658425338e+00,-9.711091933668783427e-02,5.317900636741265674e-02,1.279239796916530059e-01,2.525339204672823468e-01,-8.123430049059472691e-02,-4.272013088582680140e-01,-7.962229940189448074e-01,1.444375583361735133e-03,2.713323562999095939e-01,-1.028615774475886702e-01,1.654025490913934582e-01,-1.184528253899635120e+00,-1.444529088842007924e+00,-1.497597560786783633e-01,2.882536057169376698e-06,1.597532091885816463e+00,1.086240359725420546e-01,-2.652495415074855312e-01,-3.262565061772021990e-01,-1.249394861093050813e-01,4.538349667721154890e-01,3.179613796787024160e-01
-2.236607838115819424e-01,-1.847713444944410754e-01,2.035658542573768881e-01,-2.551187364784313627e-01,-3.297965568123847890e-01,-5.222749769498920003e-01,-8.089225071277812706e-02,2.834743586681903182e-01,-1.908864269408623304e-01,-1.206955220608422752e-01,-9.269990047766311081e-01,-1.627092823661363541e-01,-4.996024522576071880e-01,-9.439040508765320636e-01,-3.669668690670790379e-01,-9.625762374240399988e-02,-2.938315612464978410e-01,5.998783135132216282e-01,-2.029943581315214185e-01,-1.699340821037163274e-01,-2.209311466091240239e-01,-7.448665605448967497e-01,-7.809430821236103271e-02,2.839668702606840123e-01,9.490676873681868075e-01,-8.355280716944100960e-02,1.816080676523950665e-01,-3.203735237481383780e-01,-2.236442320058700528e-01,-9.358092105810833505e-02,3.855170092292152240e-01,-5.487207416539660598e-02,-4.366950768225370538e-01,-4.182019123459928545e-01,1.457597931048796799e-02,-8.219579554157835366e-02,-1.259081283952258601e-01,3.489360147128824918e-01,-7.249898254377283857e-01,-1.654186363549633165e-01
-1.912668023540568252e-01,-1.322429106492326034e-01,-2.648928396719856249e-01,3.204675971708826898e-01,2.311967046743712006e-01,-1.634588053595626422e-01,2.239480576631086226e-02,-1.695354823543799849e-01,-3.384602035493382288e-02,-1.160269749701891145e-01,7.154946527850081228e-01,-1.484079366764289032e-01,8.274872670932713337e-02,1.576176044756955608e-01,1.257834557057971869e-01,1.317037979427462292e-02,6.013585372144629737e-01,-5.795218956715689762e-01,-1.778922036142092100e-01,1.119400223201924144e-01,-1.102189186788292419e-01,1.980526325342809035e-01,-1.332069510495041409e-01,-7.047820796390411591e-01,-8.601857596101950554e-01,-2.125507376978855861e-02,-9.336271562079485886e-02,5.225268451015002008e-02,-1.601993568269259871e-01,-4.794772093424817805e-01,-5.943241481709945484e-01,-1.144188910301094202e-02,8.937428991222813590e-02,1.578044094664171337e-01,5.577911309305095405e-02,-1.642085629470580177e-01,-5.560860712036871933e-02,-1.107057750567031068e-01,3.088141058626956426e-01,1.215374633503886886e-01
-1.516121536395659830e-01,-2.471457950121869473e-01,4.709003657703407231e-01,-1.386230260981793083e-01,-8.141693693433603440e-02,-2.761503621225690486e-01,1.082397027557429614e-01,2.149969049312689881e-02,6.869260469185879681e-02,2.412443219373263531e-02,-7.498721976717861448e-01,7.837794019388844013e-02,-1.184562269839493365e-01,-8.028894126333439019e-01,-3.936637190043858481e-01,-1.116947120089015338e-01,-4.114321139235560532e-01,5.942789526426101032e-01,2.202686475166502900e-01,2.317562783528293868e-01,-1.831447724123625720e-01,-4.525628146957747511e-01,1.514362907567663175e-01,3.849057645797840377e-01,3.943281557208832000e-01,1.025686715836083007e-01,-7.624357057772572499e-02,-2.350329480102583968e-01,4.426613064485458993e-01,-2.469721725258585965e-01,9.249044196209176283e-01,7.700814616714998784e-02,-4.479023018797745892e-01,-9.556163858299261404e-01,2.992866667634305200e-01,-1.082638161305541358e-01,-4.174203915389028130e-01,6.219833586807171216e-02,-7.175492152572345850e-01,6.025369523104349284e-02
5.145648139209577088e-02,-2.687254731698079380e-01,-4.791135801554317619e-01,1.669150931079039224e-01,6.178634157913551932e-04,2.113923790111856549e-01,-2.763011799485064479e-01,-3.056048558470228493e-01,6.049521586381251953e-02,-1.637670586986447185e-01,9.780449005987721378e-01,-7.670152024986891248e-02,7.133977960863316925e-01,5.102096548953551913e-01,2.144731904061198124e-01,-1.624565485438911328e-01,2.122229615032938665e-01,-7.886091951478030326e-01,-9.680712738989503963e-02,-3.157986500063593716e-01,-8.911523332742540826e-02,2.857326615089416655e-01,-6.711048117964713011e-02,-3.645434126368350403e-01,-8.211128951309512036e-01,-5.122747699512843894e-02,-8.123222693054681087e-02,4.908796385735738482e-02,-1.443464564283233331e-01,-2.237570847475263414e-01,-1.134458548776376974e+00,1.854353435622597274e-02,-2.394654207736796603e-01,2.248833431860141341e-01,-3.214579818248377574e-01,1.066647904715952860e-01,-5.623416168695977158e-02,-3.474683588610261720e-01,3.990449901677226574e-01,-2.801965625131668247e-01
3.098672302448401972e-01,-1.778952449906943400e-01,-5.692750733433281640e-01,3.689870862540228780e-01,-2.593527393412903836e-01,-4.589729490409025225e-01,-1.397921686923868367e-01,-3.289358430054099558e-01,-2.415439798121012671e-01,-3.414760973457213744e-01,4.394661983634920444e-01,-1.028018165161340147e-01,5.664946273621171979e-01,1.125911764595244557e+00,-1.254339392203989434e-01,-2.255518983663758747e-01,2.773051790213346135e-01,-3.056098697227644934e-01,-5.402046718524260438e-01,5.226269070099710812e-02,2.839937520035785111e-03,5.638506347865409607e-01,-2.400265220844337577e-01,-8.535067163873032436e-01,-7.442301719839223839e-01,-1.624068228469160158e-01,-3.681759746883886963e-01,-3.328014758922206440e-01,-3.175992665012895011e-01,-2.171711485737832237e-01,-1.050484350114260668e+00,2.180859352499504578e-01,3.640789668215766994e-01,4.778089582984945682e-01,-3.415654986863507214e-01,-1.447234855883958171e-01,-3.174102478840839514e-01,1.469094198869676793e-01,8.545968727431927370e-01,-2.509273660119605842e-01
4.889088122923538338e-01,-1.285482683845922403e-01,-2.178265565990391284e-01,-3.141653886651273875e-01,-2.327576174783824864e-02,1.777485708853365542e+00,-7.707720411321972165e-01,-1.433305412724608374e-01,-1.597205611605519993e-01,-2.335682559596136132e-02,2.624381965881607548e-01,-1.673914599813118576e-01,-9.879674645421800822e-03,-9.169522175014724885e-01,1.045269074285902322e+00,-7.181627436637987028e-02,3.932095623763504633e-01,-2.684211414079711866e-01,2.984123313652909948e-01,-4.227230233221868777e-02,2.152665311528077774e-01,1.475580065617603243e-01,9.180767973415167316e-02,1.990111737097517153e-01,-9.635823318956691086e-01,-1.739591456663420188e-01,-5.047194749986211315e-01,-4.570157565727531179e-02,1.119375128516695850e-01,-4.035168377524295247e-01,-6.351513591927161473e-01,-1.548821432798918873e-01,-2.248462220718678850e-01,4.908686589484910767e-01,-2.167269920289652818e-01,4.270176577600023199e-02,-1.482923482879489330e-01,-5.704174461084036807e+00,-1.068796084897089660e+00,-1.863062644023181225e-01
-1.362611510633597034e-01,2.673358357195648738e-01,3.737453011403830683e-01,-3.630253981489572207e-02,1.482458419142914686e-02,-3.865284551814373026e-01,3.876233003117184883e-01,-2.062786469174894832e-01,1.482025231574492508e-01,-8.149829378845079020e-02,-5.677036349268100857e-01,-1.700839470066320136e-01,-4.972893597236673346e-01,-3.448685418688254289e-01,-2.474047771585518793e-02,2.161563125988030451e-02,-4.221975087293157181e-01,3.825644519362207396e-01,1.437250708788864462e-01,2.060175867826684049e-01,-3.180396438101657508e-01,-5.213347233529207203e-02,-9.919747450014607115e-02,8.208518564435166032e-02,1.620207914234570445e-01,1.323663434116830462e-01,-1.611543218905535022e-02,1.299842397524476889e-01,6.152621326536286128e-01,-1.802272811278026743e-01,5.535558860008389370e-01,-1.353133539166169741e-01,-2.406026777369267289e-01,-2.556474699400029249e-01,-1.747139863290199935e-01,5.067933473538502320e-02,1.305005804361487019e-02,4.750764241137646615e-01,-7.913055367780545968e-01,-4.728935481820587677e-02
1.260114744160328037e-01,-4.707372697366228320e-01,-3.575101159663428008e-01,2.031687642685856277e-01,1.051437682707129402e-02,-8.964597267460575059e-02,4.070259071359069725e-02,-1.151640408853727843e-01,3.581995586190351438e-02,-2.288427565686157183e-01,-3.937979326977864361e-03,-5.203548744001989385e-02,3.650265924906886950e-01,1.776215232847266901e-01,1.101003114750735284e-01,-7.012882755677607438e-02,1.280873320241378011e-01,-1.811957984963701584e-01,-2.180458958141196502e-01,-3.959508201863409793e-02,7.326909994384735170e-02,1.798398947887419830e+00,-2.928233277110616206e-01,-5.837782594080058451e-02,3.749276483157559237e-01,-3.246537778760181375e-02,4.922396309965176679e-03,5.707663220331624099e-02,-9.625213942247307086e-01,9.167495389047891630e-01,-1.435578818272794210e+00,-5.342185750858102766e-02,5.424037522940634154e-02,1.999555523365365572e-01,-3.020809407682236714e-01,-6.092716816369767030e-02,-5.679109397518308094e-03,-2.325325743860430505e-01,1.663006393646981051e-01,5.064976710574954633e-02
-1.332397220501204960e-01,-9.238010905277220519e-02,3.867975086443130595e-01,-6.836486862896546945e-01,3.061335689834671688e-03,-4.002143972865980781e-01,-1.440558292905299576e-01,2.861289913137167740e-01,-1.459272576895453144e-01,2.248482752465582324e-01,-1.416410808047844583e+00,2.143916885249513016e-01,-5.708186965815534863e-01,-1.032856251798238478e+00,-1.286727969220675116e-01,3.014943029717742640e-01,-7.816256751956478510e-01,4.979528583599690528e-01,-2.931665342473728786e-01,1.902241165768203401e-01,-5.285180071130406859e-02,-4.736722844474265393e-01,-1.589967317377206368e-01,6.742921970785197283e-01,4.271905795080710999e-01,-1.552792916724302363e-01,-4.353230863297344877e-01,-5.556561393289507489e-01,4.830507128596288613e-01,3.045285302465434215e-03,1.723362846487891842e+00,-2.620951457158341574e-02,-4.473496498173118452e-01,-8.819004902890705822e-01,6.380890066404328875e-01,-2.832512980688628446e-01,-2.060517932451761403e-01,3.516373655416580868e-01,-8.343035352548294759e-01,-8.781281366833883217e-02
1.183321436905840490e-01,-1.681220185159976732e-01,-8.561742881023485241e-01,2.042151405942935760e-01,-2.059970578439769898e-02,-1.686577633832344880e-01,-2.095896372921062789e-01,-7.901913342392227757e-02,-3.784162263088970517e-03,-1.864476938431830766e-01,7.802970618673493730e-01,5.422932105232283057e-03,5.264953497479188949e-01,6.871314941294981438e-01,-2.415621701342354766e-01,-7.917307111469447378e-02,1.505879110128781617e-01,-5.293852416453325160e-01,-4.825864001019843953e-03,-2.822803519570263875e-01,-1.462919169202648306e-01,1.238501845841476073e-01,7.034967576480896656e-02,-6.103389044639160321e-01,-6.063033299377076357e-01,-1.037371426558461873e-01,6.068501493378887501e-02,3.522773557847628384e-02,-1.520703866236850499e-01,-1.232741500010600399e-01,-1.058748852144848929e+00,4.029669595343808863e-01,4.159358504462892236e-01,5.484353593102125890e-01,-4.888253508930294755e-01,-2.437599260171380844e-01,-3.467896152258326953e-02,4.328706351285369625e-01,6.965396981125661080e-01,-1.144371201483763284e-01
-9.968137849623064373e-01,2.340705227504591701e-01,5.075124179469183705e-01,9.458985035272844677e-02,1.657898132186239604e-01,-1.228425247612492610e+00,1.041538240421626127e-01,3.782553220070039579e-02,1.541840175357876014e-02,1.109518865315919506e-01,-1.178059091744728448e+00,3.159501801289151257e-01,-9.302097111884213287e-01,-7.929912537286827323e-01,1.460919801680933376e-02,-4.098036011831850955e-01,-2.048795614226364969e-01,3.399988696540837824e-02,2.606509850345862245e-01,1.774777080142981023e-01,-1.289410963336215521e-01,1.567123058647828804e-01,7.490139519098988619e-02,5.050284302787684254e-01,1.415373877934058937e-02,-3.061057991856223626e-01,2.274485117419536850e-01,1.417851359448023540e-01,6.603541092480359476e-01,-1.230985527364594351e-01,8.868852198389333141e-01,-1.510413430285517666e-01,-2.533394547038692601e-01,-1.008528513418132322e+00,-2.011597479645209630e-01,-7.127450945728640297e-02,-4.443135152435024327e-01,6.850406800254768003e-01,-4.286170106823377068e-01,-3.586149621982058500e-02
-2.763120245764106309e-01,-6.012907083359873318e-03,-5.100548724515943100e-01,4.255308033971897386e-01,7.392398171610308974e-03,-3.248744023619361543e-01,-5.077566605650241788e-02,-3.079458109005047683e-01,-1.567473495959421925e-01,-1.835942619317480484e-01,4.795056682127693537e-01,2.028403057098482343e-01,2.487478633364218483e-01,6.388544475829078806e-01,-3.680883688353430716e-01,1.050296984867025996e-01,1.391782714219408634e-01,-2.203111365141994793e-01,-1.454548167418540927e-01,-1.060315434642229299e-01,2.607861648003704791e-01,1.817444019710494074e-01,-3.352371437646138319e-01,-3.364916879823257045e-01,-5.182835280254091126e-01,-2.128833188503981844e-01,-2.769659318302196693e-01,-8.285748068653371601e-02,-4.146968656871330983e-01,-5.650989804649687587e-01,-1.120948913121988966e+00,2.199229682201908620e-02,-7.287238942023148425e-02,4.684818776211696068e-01,-3.385805067441190891e-02,-2.564886280932177423e-02,2.035551690593897234e-01,-3.262129196327653302e-01,6.199117448287764232e-01,-1.991173782431959194e-01
2.672471151108916226e-02,1.910763931284243933e-01,6.013156470698882705e-01,1.936123893803788631e-02,-1.744497108481760095e-02,-2.425506578826834014e-01,-1.238547373356846670e-01,2.929545601956556888e-01,-3.802060012042540182e-01,3.601152598142013522e-02,-3.565904883399150238e-01,1.307798781948822375e-01,-4.184222398663337561e-01,-3.505924423641170184e-01,-2.184852482625008196e-01,-4.759798870709705532e-02,-8.982722584580876690e-01,2.511929029636444932e-01,-8.435221042526951096e-02,-1.964989878839253634e-01,5.232890376811661325e-03,-9.110090380144511002e-01,-1.139274394904326859e-01,2.675255398527779938e-01,6.202210044247754572e-01,-3.486118665067429456e-02,-1.742191044307313252e-01,5.116811925825861529e-01,4.894272403412535666e-01,5.307441166774391761e-02,5.039845229709883911e-01,9.596782556998032648e-03,-3.843407849563295064e-01,-2.964566014597034282e-01,6.601749001889731239e-02,-2.327378937322951979e-02,-5.138384487197926731e-01,5.766414132932693448e-01,-6.043378872706122173e-01,-4.979709969162072758e-01
2.208877410719413403e-02,3.280081892439542512e-01,-2.244808182707457855e-01,5.715747794073585547e-02,-9.888303912630597159e-02,-3.399157738751347746e-01,-4.956287196338289847e-01,-1.151743449181930723e+00,-1.831219546612398164e-01,-5.552417871245002301e-01,6.453094361760487452e-01,-2.192694135928072163e-01,5.308273967521115466e-01,9.835894414395659480e-01,-5.962564076678473352e-02,-1.091485442345337120e-01,4.155635284025518961e-01,-5.919365058714149974e-01,3.431948626160745697e-01,-1.709381100213258342e-01,-1.667465136331811038e-01,3.656496731342191997e-01,-8.575456427125885406e-02,-8.421460281543570181e-01,-1.736191769619464864e+00,-1.440429703948866436e-01,-6.730296275361118408e-01,6.423180539580793935e-01,4.532978174601396959e-01,-1.420236786762211434e+00,-3.145670940230690382e-01,-1.285145666834998646e-01,4.525091226544461498e-01,4.314155588142475350e-01,-2.951994346844384332e-01,2.938191539172373967e-01,-1.106680498862745166e-01,2.291041141668325731e-01,7.875796498924748645e-01,-4.595904252980304028e-01
-3.987175926184469699e-01,7.045995242311542568e-03,-1.181393724017577723e-01,-2.591826598933085202e-01,9.830224728776658372e-02,-3.847712553135776981e-01,3.393753234029080190e-02,3.833410601266695195e-01,-1.227364357713633253e-01,3.745283166438881928e-01,-1.076363074565025446e+00,-2.381788239054553336e-01,-3.548081726691483806e-01,-8.830337468090340147e-01,-3.824524345633827926e-01,1.618183642930257626e-01,-6.750612095043885263e-01,9.036229189959289476e-01,-2.710422826816760722e-01,1.259831614010492318e-01,1.548914741244901139e-01,-6.119192363749909047e-01,-1.240499232275748959e-01,4.068483145652684319e-01,4.496893207356502664e-01,8.898706822769468505e-02,1.269154449724612110e-01,-3.286731660586048598e-01,-6.672266564313709958e-02,-7.384990122477858021e-02,8.232423191138846796e-01,1.569954529537661014e-01,-2.699292044270864555e-01,-6.446613767769836523e-01,-2.265105506279585790e-01,-1.133980458568359939e-01,-4.417426719358067411e-01,3.435684895571983200e-01,-4.155599429889085816e-01,2.229322113474643818e-02
-6.485255750783892881e-02,1.915265240458852436e-01,-5.474244067291790528e-02,6.813131291161900194e-01,-4.248139832499969043e-02,-5.083423173769193726e-01,2.022509012838526743e-01,-3.160219383097560564e-01,1.780091737099590010e-01,-1.666790767978482968e-01,-2.883757045627355353e-01,3.042184186215718955e-01,-1.477997097319879716e-01,4.268002609827129534e-01,8.372990048612073688e-02,2.689471166037123995e-01,5.090452509015869209e-01,-4.566886003022621043e-01,6.575333860249643614e-02,-8.252739194077420015e-02,-2.675355086794109494e-01,5.944154597703380505e-01,1.707835039195199356e-01,3.466162069109790522e-02,-8.340957995829023641e-01,-9.069764159365360789e-02,1.871961053799875777e-02,3.362925780896781625e-01,1.412271974833173016e-01,-5.285745262434746738e-01,-3.282223923475285354e-01,-8.294834299560656377e-02,4.529860053243773832e-01,-3.728951130735764230e-01,1.662912635431453706e-02,-1.171864873994751949e-01,-1.578581066105592123e-01,2.151393906496585906e-01,3.411825062134495323e-01,1.567765729845026768e-01
-4.327303614303215085e-01,1.862075770245432971e-01,2.514167623956134467e-01,-3.968705898170062918e-01,-1.155207080767006872e-01,-1.785144291995100774e-01,-9.463950975044056746e-02,4.377407479175738358e-01,-8.141672353891679648e-02,1.717206946037356796e-01,-9.548356806363483829e-01,-1.680409701997018779e-01,-4.500398179116084883e-03,-7.376926497773691471e-01,-1.444237309431623262e-01,-1.926079434335174478e-01,-5.426298055531028064e-01,9.360298120446431946e-01,2.821426468112102071e-01,-2.375540624342638019e-01,1.438146659034616158e-02,-5.242520899471359019e-01,5.506044911840644041e-01,7.187669569242604029e-01,1.033474555420065277e+00,2.725548302634380748e-01,3.639576879284066591e-01,-2.146141835539000786e-01,2.605385658356317718e-02,-1.736072702157974157e-01,8.432985869190200434e-01,-6.023649078013389169e-02,5.886425713982312846e-02,-6.032808265941720371e-01,-2.561063443237709403e-01,-1.263647375088994274e-01,-2.426740347099100581e-01,2.551800321978185959e-01,-6.912504769923394354e-01,-2.417776450648929376e-01
-3.074558232450735340e-01,2.140884172332378488e-01,-2.750073258357218012e-02,5.100385708984218197e-02,1.297640246310001813e-02,5.670172025107636515e-02,-2.270327741022369894e-01,-6.455734796280137022e-01,2.418229259390028141e-01,-2.431547562593714407e-01,3.754771466989685891e-01,-1.344206099162096879e-01,4.806722380504679371e-01,1.821103201098018265e-01,-2.767229574442178069e-02,-1.120294298390812904e-01,2.833714994634960460e-01,-7.852774211145133187e-02,-1.196308191277497684e-01,-1.631798848692518067e-01,2.471926821192760582e-01,6.613084470086887379e-01,3.615809867907140464e-03,-6.572943858598830902e-01,-9.317949105305636248e-01,-1.755009456465511375e-01,-3.083174098697752941e-01,-8.025582085138842359e-02,-7.050005951648097291e-01,-3.400769516365230727e-01,-8.982459062826435581e-01,-2.745740556333672311e-01,4.476812426126446920e-01,4.490872871124673704e-01,-2.284754974626386215e-01,-8.626795547030183253e-02,2.353757401691654871e-01,-2.647145574666084911e-01,5.872874051724271682e-01,-1.985956029788080168e-02
-2.363588469825474436e-01,-3.896534992075674497e-02,-1.287170441933717380e-01,7.571946946143648383e-02,1.150332378889830191e-02,-4.556269147543026699e-01,-3.848636727252381928e-01,-3.540732899982226289e-01,-3.411593716855665370e-01,-1.773353351231266029e-01,8.114065887286009415e-01,-9.812415574578700617e-02,-2.621223327506960743e-01,7.038082865095171003e-01,-7.801683067184615739e-02,3.522511005219262081e-01,2.516065420348478354e-01,-5.155147666625514713e-01,-3.251596735822822049e-01,-6.380142494878153492e-02,-1.114060109245514768e-01,6.416019389405016593e-01,-2.408028166481225862e-01,-4.861495492922403572e-01,-8.322587419561109368e-01,1.200956891315517298e-02,-2.451582705102290510e-02,-4.128559430745983860e-01,-5.598470181219245001e-01,-4.826738877914897308e-01,-1.481152262925524488e+00,-7.396740095818271632e-02,-2.340914973834301305e-01,2.891057452674911099e-01,-1.904319614115221326e-01,-2.624784640381475510e-03,4.573281891242593211e-01,-6.476330163217065838e-02,1.179046401879425332e+00,3.436502341997765830e-01
4.567134066345760607e-02,-1.179011261812419470e-01,1.684940631367254915e-01,-7.792430468664773846e-02,-8.805852104924549728e-02,-1.280283638033063165e-01,-6.606063189137280356e-02,-1.729182086114238737e-01,-1.644530160076767833e-01,-2.360786629726729924e-01,7.780600330375568863e-01,-4.342776353746531648e-02,4.014887735759304910e-01,6.745403322774392585e-01,-1.127703222755390422e-01,2.159192596609692261e-01,1.180772319929489639e-01,-2.365895608383383197e-01,-7.381217966027880939e-02,-1.293313910662744481e-01,-7.173748918115445405e-02,2.780488500849707667e-01,-2.187298089531057865e-01,-3.232399022208314321e-01,-5.030074392206032030e-01,2.131115126586124731e-01,2.435442701997599102e-01,-1.522507962355075517e-01,-7.675996967824630923e-01,-8.592551657155859113e-01,-1.656106658021205824e+00,3.149728305431522685e-02,-3.715866418674820260e-01,3.747404341266143968e-01,-1.694992352514172740e-02,5.956443128045387642e-02,6.377978778965295303e-01,-2.588151059645796837e-01,7.252828552441307197e-01,1.159926687520578953e-01
2.759384800424634077e-01,-2.193107810442753922e-02,-1.173847291473315430e-01,2.984434622799991832e-01,2.664383469186747816e-02,1.139886828431077720e-01,-6.613916569994188199e-02,-2.029650820948842027e-01,-2.889014454782259586e-02,-6.920042959933440929e-02,5.482897483616983036e-01,8.494392103956441287e-02,3.538218928681823860e-01,3.462164152359524794e-01,8.235528357939511657e-02,3.375108167175585455e-02,1.244486877927250823e-01,-1.289538393853877918e-01,-7.481282265400504561e-02,1.865022683921939983e-01,4.505092980286766295e-03,2.502866323525258507e-01,7.574380600395369534e-02,-3.278132781400467932e-01,-5.466819579222401693e-01,-1.807018080638373159e-01,-1.158746370147769877e-01,5.391918455068074600e-02,-2.909050110931308830e-01,-1.809059379667702916e-01,-6.470760249096136896e-01,9.242677456744052833e-02,-7.825577959859363053e-02,4.419026318349461580e-01,-5.047898808666863302e-02,1.633790920711159639e-03,-1.370337668123998986e-01,-4.324066961210334264e-02,3.591695256278071291e-01,-1.228698796903918838e-01
-3.806823733670940402e-01,5.729731762772159731e-03,4.059348196868860503e-01,-7.036893468251632644e-01,-9.866645839370144500e-02,-1.862096728209364505e-01,4.502440913622004492e-01,-9.379245188358081853e-02,1.175063777242729840e-01,-4.915702210108974235e-02,-6.213974668057661299e-01,6.144489128439530046e-02,-2.712955090868259256e-01,-8.675738540562526468e-01,-2.065977871307880798e-01,-1.154029987919743400e-01,-4.198373764550399900e-01,3.417577699409788394e-01,-3.727198627130358377e-02,-1.755667779274409576e-02,2.768812795840360635e-02,-1.816030705516220589e-01,-1.645301993214418057e-01,7.519164145792615050e-01,1.027846495127638038e+00,7.332028080993543973e-02,2.946087161986081226e-01,9.428217062140155369e-02,1.014635073146504807e-01,8.029143874873921893e-01,1.447750213365838867e+00,7.613553373702436344e-02,-1.652336430770228737e-01,-7.317907787251872742e-01,-1.748790801122403205e-01,3.173753374092470048e-01,-3.633580682885276802e-01,3.613861492446294177e-01,-1.211219671457367086e+00,3.825089724505057465e-01
-6.737355659777067851e-01,-1.430185611865710318e-02,2.679431501332779075e-01,-3.705652324965740818e-01,7.934171620781645118e-02,-6.289416243782594007e-01,-2.054680790700122994e-01,-1.853489469137208079e-01,-3.498583058807848145e-01,3.342014976772324925e-02,-1.628518814660165015e+00,-9.269826819946427876e-02,-3.141190696493442736e-01,-2.405244927725858906e-01,-4.639855473026943122e-01,-7.531463731078857915e-02,-3.772450515903925661e-01,5.327394049200733228e-01,2.844590601989298584e-01,-1.532792145656861338e-01,-1.971874603139217585e-02,1.426265472660837464e-03,-1.753539983322966456e-01,6.785032825775294540e-01,1.794433537734030359e-02,-1.189190885765504559e-02,-9.560956099088285809e-02,-1.778887547443260830e-01,-7.355947557466319120e-02,-1.956853656718455514e-01,4.943437568833356499e-01,-7.049145792546798739e-02,-8.467528770028294460e-02,-5.595768743362948827e-01,8.247968356571058757e-02,-3.193155571306367096e-02,1.492570313128033510e-01,6.104885021443654525e-01,-4.133836174635415611e-02,2.640738651843783924e-02
-7.358567874036119061e-02,-1.091262802510528512e-01,1.403712997516869121e-01,-2.709852988121369544e-01,-1.245328409843252798e-01,-4.394298900577043310e-01,3.439478587969435619e-01,5.471964264833523162e-01,-3.456018019943234432e-01,6.240193225248454739e-02,-8.313291626074886809e-01,-1.745282676049045578e-01,-9.736808149306618310e-01,-1.076179465973840621e+00,-4.128945045022578558e-02,-2.278759931727186161e-01,-3.633475865068576116e-01,6.301103301932913237e-01,1.853711939241247109e-01,-1.048686444828734604e-01,-1.811478707761234597e-01,1.951955154446745055e-01,-2.867670952568409162e-02,8.447920504772594708e-01,5.927104619450054290e-01,-5.069070067486623754e-02,7.150243136321884907e-02,6.172097453214275137e-02,3.939288631841112998e-01,2.561796129023423130e-01,1.304359784379096165e+00,-2.497859184348390996e-03,-4.463605621138972412e-01,-1.205103662798969966e+00,-2.022798740089173375e-01,3.179579183888663341e-01,-1.985921674300043793e-01,3.759974683776016180e-01,-6.763750076372083697e-01,-2.573174811246744520e-01
3.683223264968290001e-01,-2.266084745755967134e-01,1.581921891251235335e-01,6.077179824397049845e-01,-1.010850413407397563e-01,-2.963103956888410440e-01,-1.428854579124072821e-01,-2.584089515549837790e-01,-3.108475301507827027e-01,2.044228422321994754e-01,1.090375551142982458e+00,-3.558091725495148294e-01,8.009888806300156094e-01,6.402840111981616955e-01,-1.869214705069245086e-01,8.669381200367490270e-02,4.619100269110437140e-01,-3.645200944748890337e-01,-2.483634972866841650e-01,2.592684363294993355e-02,-2.857053656998257418e-01,2.174920253948315063e-01,-1.653268125336856409e-01,-2.967379568937469903e-01,-7.257568346999648812e-01,-1.704496818470249975e-01,2.810508792300023956e-03,-3.461269822291948017e-01,-2.665307234235709810e-01,-5.209413895525898397e-01,-8.555561287400437198e-01,9.047836837315552036e-03,2.967322318138527343e-02,6.183606868600729500e-01,2.975869005129121170e-02,-1.109578439262857846e-01,9.935788215064274287e-02,1.911287048818007331e-02,5.039465382792133186e-01,8.060012436985501683e-02
-6.061296832243112664e-01,-1.967573659642735950e-01,6.236238844560592076e-01,-6.717888139372223399e-01,-7.503971484591279162e-02,-1.099038745503954084e-01,1.376621092468841845e-01,1.811256914450150024e-01,-3.875407998441116053e-01,-1.369127675073826544e-01,-9.286437611284903415e-01,-2.556021727082957024e-02,-7.339040223225240522e-01,-8.409005349277074437e-01,-2.521463883411481643e-01,-3.659885003694689221e-02,-4.461117627783072193e-01,4.923534540513720414e-01,-3.098311559935648662e-01,-2.131686681972230421e-02,-2.511261961874151558e-02,-5.333650363285838969e-01,1.144403877115939966e-01,4.378194758474413528e-01,1.066121785709978953e+00,6.993109591353077747e-02,6.257900196715841801e-02,-3.034726746313488044e-01,4.174121539176081086e-01,-3.406621008083466906e-01,1.069949218997612750e+00,-1.152076900444823221e-01,-5.162407708168099268e-02,-1.250387494315378323e+00,3.970510635057489246e-01,-2.834036046744889958e-01,-2.002990963077316833e-02,2.762856017289625488e-01,-8.161514063074527536e-01,-9.978032451375619394e-02
-2.465007194043848382e-01,1.838923436582742821e-01,3.240250328159371973e-01,-1.199658113342633309e-01,-1.567375143492182599e-01,-1.544458690006755008e-01,-1.511927943680172470e-01,2.634805206746060682e-02,-1.921202883828966312e-01,6.098176974068376943e-02,-6.633928098428388820e-01,-1.536206109657924090e-01,-3.291381588425875138e-01,-5.794598694436836617e-01,1.531616036930485147e-01,1.429219023848526671e-01,-3.361724185651063790e-01,4.637046157528564860e-01,4.144863118845337202e-01,-2.456978483725841822e-01,-1.452042642977563747e-01,-2.885954429381830388e-02,3.294968978541576443e-02,4.652795549778321882e-01,3.716776139738279250e-01,-4.562517812180485327e-02,-9.507317213022155322e-02,-1.515611134711906949e-01,5.708573053762079352e-01,-2.771502257495654931e-01,1.248208354235051720e+00,1.184367590399034997e-01,-7.357821782875331902e-03,-7.149373855700503766e-01,-1.410117904776192754e-01,-5.354027499322235040e-02,-2.098397242798859252e-01,3.334824507192377108e-01,-8.148230821995607887e-01,-7.924737979326133830e-02
-3.320722502987739216e-02,1.312039460213871023e-01,-6.123354846096799031e-01,-2.920405085975213630e-02,-1.123758769912423447e-02,-2.565209275403548261e-01,2.355655270811035824e-03,-3.848030025026348833e-01,1.473866146754783113e-01,-1.854295110993008366e-01,1.011382472467296179e+00,1.067973815078949867e-01,3.897334810198079674e-02,7.982187222859161713e-01,9.648325595841897306e-02,1.629040580567962804e-01,3.587055848373892353e-01,-5.810418214449036833e-01,-1.750421822699488317e-01,-8.086873605633025652e-02,7.161863003371642111e-02,6.445942466707433871e-01,-3.688843890108291917e-02,-4.193962054518353133e-01,-1.307161939311441090e+00,1.160328315821034795e-01,-2.428677877189807099e-01,2.036295713020724873e-01,-1.489544812780839445e-01,-1.083051215096477726e+00,-4.078255927356055910e-01,2.293968760441553179e-02,-9.925334404278676748e-02,5.721234316452300517e-01,-7.759899671254734399e-02,-5.856135411076058422e-02,4.781609317086653044e-01,6.438782530999792586e-02,5.870064568269087735e-01,-2.033023530657688746e-02
-9.220631763321357477e-02,3.137420960987929996e-01,2.562485193733337607e-01,-1.553014627031823192e-01,-1.097490383773446626e-01,-2.619966485623324015e-01,-7.281606091770941903e-03,1.380914146645688123e-01,-2.142524528668404982e-01,4.889133611249262684e-02,-5.352318263353424976e-01,6.194458724652474740e-02,-2.181138654755411521e-01,-4.500184900337448890e-01,-1.466877004952571173e-01,4.082522208579945910e-02,-5.764286448827881104e-01,3.698575267874953942e-01,-6.116939088874064762e-02,-7.104961157398881344e-02,1.589067594498124736e-01,-4.120912202064861418e-01,-7.859175405406582104e-02,1.635765776734714183e-01,5.116128288943384561e-01,-7.625770163140743740e-02,-1.467641598114238222e-01,-5.697583384566615727e-01,5.917315160183209688e-01,-8.514331457591761687e-02,5.347932076341400665e-01,2.553238721059403887e-02,-1.917410173838542675e-01,-6.982771033544104000e-01,1.311274062011914543e-01,-4.974453977023651774e-02,9.215406801004416559e-02,3.645165757823591868e-01,-4.932248454991415287e-01,-2.329989365568027881e-01
2.119491105425427291e-01,-2.554999953917774791e-01,-2.224328949107456932e-01,1.249321998582923893e-01,-1.833871386695352587e-02,1.185688584254714906e-01,-7.739366974834516189e-02,-2.753722086156236704e-01,1.741706541720894619e-01,-1.133580425741899100e-01,9.895603010150563206e-01,-1.830711999975329907e-01,7.252532418575164952e-01,4.071620013724664422e-01,3.883083053292357006e-02,-4.696862244505972672e-02,1.209626904565320460e-01,1.130419551458264615e-01,-1.557835707394001623e-01,-1.406214108920161299e-01,-1.943571518662171385e-02,2.298530026421647665e-01,7.512165755772436115e-02,-2.897219185720792400e-01,-5.038660437530562142e-01,-1.557609944180559924e-01,-2.808106529947892449e-01,-2.265555091847828995e-01,-1.316634589125998678e-01,-1.382681395733862395e-01,-4.333945372600952473e-01,-1.556166444547928962e-01,-2.029037667741305229e-01,4.971403392678265254e-01,2.204407015529594865e-02,-1.679433172557636689e-01,-2.833991429252841719e-03,-2.903935872505017945e-01,4.564504499073549493e-01,8.098549729700640909e-02
-6.280401912601450976e-01,-1.645543064591787064e-01,3.188241147683584797e-01,-1.336805581375915541e-01,-1.455868747150859122e-01,-4.060620957904339523e-01,-1.076399209599157442e-01,2.484323206600853318e-01,1.652345436763123787e-01,-6.400201697795490641e-02,-7.199494482498703940e-01,1.347506706622307870e-01,-2.662811029177525879e-01,-5.662019705811160986e-01,-2.887650564672454290e-01,2.112652195316426229e-01,-1.292349720926160572e-01,4.775415195974787030e-01,9.474054133455264703e-02,7.198070557149545412e-02,-2.278561312368573566e-01,3.086382260645735842e-01,-1.774434802900167196e-01,1.927942986837622996e-01,1.229788780201213072e-01,-1.915539323526549986e-01,-2.803943345567249112e-01,1.578375158823405178e-01,5.305414489136656142e-01,-5.084436262524441585e-02,-1.030940525360278179e-02,-1.844112484157823528e-01,-1.088067760455793398e-01,-9.044626612198227722e-01,-3.478210835148320274e-02,8.915473263779840132e-03,-2.505206774658570376e-02,6.066348910004396577e-01,-4.401018102029118362e-01,7.752597244691963874e-02
6.121603530371964169e-02,-2.478350838674689693e-01,-3.264061476918080351e-01,4.568013777514360330e-01,6.837448200810751497e-02,-3.690709271786981049e-01,-7.699415798505658548e-02,-2.206819695636155765e-01,-8.322045086669016545e-02,1.465827356950611948e-01,8.149186304211135656e-01,-1.937236817846380299e-01,2.835008511628136496e-01,4.572621834695023701e-01,-1.663520786885978042e-01,-6.572080560134271887e-02,2.601630188163758794e-01,-6.954175345014866894e-01,-4.091434743232192917e-01,1.148679897893418317e-01,-5.687552393849686604e-03,-7.560738868982547212e-02,8.940563802964604512e-02,-5.397782365154015771e-01,-6.597546550681541166e-01,-5.656591899305862814e-02,2.723160139406983690e-02,-3.697246292899907250e-01,-3.804449557174761631e-01,-8.493903646007899821e-02,-7.865624736914111903e-01,-1.433464567693858160e-01,-1.183760154246924212e-01,2.816212741388579022e-01,-2.318286515487651689e-01,-3.094838910163527634e-01,1.336742886370389793e-01,-1.497965941296062753e-01,8.304356370519704322e-01,-1.952062194614123322e-02
-2.288044719752760081e-01,1.792326063637819378e-01,3.493441405151296864e-01,-7.156627079275525993e-01,1.180891529976330345e-01,-4.036543041425662559e-01,2.489022229675175862e-02,2.103352195030035732e-01,-8.731483738199583011e-03,-9.254169589675584340e-02,-6.383267849749346690e-01,-2.217350219962292701e-02,-4.573304518477743219e-01,-4.638768621394216973e-01,-2.078715771117665978e-01,-1.188133856583536707e-01,-5.394535516710614598e-01,6.426911108293125174e-01,-3.372248828878495752e-01,3.296879746156346734e-03,4.022767407541599088e-02,3.200268893719331320e-01,2.454479846776047303e-01,2.610957259427165167e-01,6.013825250271856993e-01,4.835211604428382021e-02,-6.350547708666036406e-02,-4.974291362868327737e-01,2.835171015934162542e-01,-9.391090507821592270e-02,5.187891240719909591e-01,3.672431480432233192e-02,3.043988792174382937e-02,-8.708454442000956863e-01,-3.463745653299722671e-02,-2.311736912980675851e-01,9.102696385945198421e-02,1.841700412777418916e-01,-2.617073411816381312e-01,9.657771517710403431e-02
-3.464512528255473955e-01,3.370178080738981535e-02,-4.412311487071430838e-01,-2.296997555118827083e-01,4.454642984465109756e-02,-6.060602529412351114e-01,1.507052819531608245e-01,9.859407351764745697e-02,1.130159504447209376e-02,2.603465991729177476e-01,-9.392008773065548821e-01,3.487071271963147756e-02,-3.428767194797733286e-01,-8.130916891197806917e-01,-5.383524906888844663e-01,-1.000608514142008326e-01,-3.724245298393808468e-01,5.826313800283021704e-01,-4.482283710754965678e-01,1.954106049233412523e-01,-1.186570025273707418e-01,-2.204308684116211038e-03,-1.364132510084582472e-01,6.453953587769973854e-01,6.008357877631598232e-01,-2.172575731290707635e-01,1.220387415127648367e-01,-5.882357425484703584e-02,5.433846973160768590e-01,3.584255932125191557e-01,1.209561027663527355e+00,1.253540541487130899e-01,-1.285247662267288427e-01,-5.587945353000627335e-01,1.262647968369254858e-01,-1.148782902969541359e-01,-7.450490335903401373e-01,2.930400038418273234e-01,-7.974992512560061808e-01,-2.495026879613910717e-02
7.854507152812075788e-01,-1.145114301963450487e-01,-4.036580857456897875e-02,-8.194141187881446298e-01,-1.524983557492573744e-03,8.161011902479146929e-02,-3.517885909031328029e-01,-2.584507426266477448e-01,-2.760077415113539323e-01,-4.055893852604692817e-01,6.216245533403911283e-01,-1.045902886625951905e-01,3.462240963327793408e-01,-1.716297510301970863e+00,-3.304734926300010311e-01,-2.524467458866930247e-01,1.213294001741511280e-02,-2.044819738766952000e-01,-5.103925131963756856e-01,5.431493357514925562e-03,-1.999892663828248263e-01,4.879488536753584516e-02,-4.592896916571769239e-01,4.065225076625297862e-01,-4.900186729897901272e-01,-1.368226427492856556e-01,-9.579622561639744571e-01,-6.852192870318455364e-01,-2.013022514590255274e-01,-2.387721348950121447e-01,-4.728403754105902634e-01,-1.334769291947465464e-01,2.759451465022668207e-02,1.939226345260714190e-01,-5.922351931173345241e-01,2.010995636230534719e-02,1.469544548608910095e-01,-6.051247217105527376e+00,-1.598013664525157029e+00,-8.655039640410825408e-01
4.646855280500909458e-01,-7.459724761254851733e-02,-5.648906504950632762e-02,4.807826371829130307e-01,6.638633086160791730e-02,9.746351078317753991e-02,-2.719927044807263772e-01,-2.945380590250100128e-01,-1.382749821860815853e-01,-9.025062377355999241e-03,5.873837425635987097e-01,1.488411731905877056e-01,2.057017595037487490e-01,4.991277558387647861e-01,-9.193979728362544623e-02,-1.910430451153366169e-02,4.400692216876829210e-01,-3.181500706519405086e-01,-1.484169006723467799e-01,-3.275676003317698481e-02,-3.627471621696236048e-01,2.089706629337504118e-01,-1.286419712912908186e-01,-5.897600102892286422e-01,-3.570756227174686215e-01,-5.350848752059332580e-02,8.072215578080353671e-02,2.870403085403196858e-02,-1.837810648280769898e-01,-1.944033711615325566e-01,-8.323422138319200858e-01,-3.895755148458618922e-01,2.069804854690039109e-01,3.493300639311526790e-01,3.247817071912530856e-02,-1.795839357480623899e-01,3.313691335708879304e-02,5.792481226896815244e-02,6.572154946687041033e-01,-7.392018612846427972e-02
-2.822846799845220023e-01,-4.931068394070171196e-02,-3.208201508520421713e-02,3.901027558213321367e-01,1.940522305785183088e-01,-4.454563326612782093e-01,-2.113879596372590375e-01,-2.444443808452331501e-01,6.503594761638142874e-02,-2.441053686076470053e-01,4.238024286358557657e-01,-7.212970536205446336e-03,3.860357155811662278e-01,7.918682280264619511e-01,6.470570941178548086e-02,-1.029801501231055183e-01,3.456974043893149551e-01,-4.186069682028992212e-01,-1.634097363070128595e-01,-4.453446405325747759e-02,-5.380716883966709524e-02,4.747413423625240214e-01,-1.275727924111899891e-01,-2.029501738640850650e-01,-4.992049837478773067e-01,-5.628921681574018676e-02,-7.261200026505637561e-02,-2.996547190054295040e-01,-3.428610084694079796e-01,-5.823284386396516688e-01,-1.449828319548401412e+00,-1.490135035048971990e-01,1.877053361500989059e-01,5.008905398925033170e-01,-3.138263906666854397e-01,1.628396197728518846e-01,4.476577163518071223e-01,-1.287545522678346932e-01,8.822133275028143373e-01,6.659182233545835050e-02
